0.22620857442480619,0.06480161765912673,0.2822202095658242,0.1342908992941284,-0.263412644325209,-0.09949587191626605,-0.013930812444803542,0.16683639828361635,-0.13458001733614502,-0.10994662176660505,-0.1918436604590371,0.23280069429533573,0.1028976488641476,0.17593084675389647,-0.029148239436351475,0.28276106719266053,0.10471681270646777,0.06889270211258108,0.21744059987182746,0.24048240088622436,-0.036790803243421266,-0.018017010803145717,-0.088266111269141,-0.2456908315883538,-0.570755230809862,-0.28692805728634024,-0.5769401389987504,-0.23087734233031426,-0.2701507583449166,-0.6017735051965589,-0.002123108803282814,0.20893671140537062,-0.012860021904915253,0.16507139665509962,-0.053646695443547165,0.19496744769595664,-0.11234257832121985,0.2800101366661052,0.06651393632445524,0.0655219989621435,0.12038517280985161,0.7437738718473614,0.6774627851995447,1.1414940088766787,1.515344448777788,1.3471836816853124,0.7281745460640991,1.2067008198153637,0.6955406209510269,0.5218141919196053,1.6090091196730318,0.7112914794823759,0.5477607639789754,0.7413320094049574,0.7146901871146005,0.35953811802923297,0.5144774985439806,0.6048963618438794,0.4452792352886171,0.5013778879138768,0.5954117716804774,0.40365008081615816,-0.25263727314951767,0.035751042580806636,0.2726984195610578,-0.28801475316742847,0.08326523232065464,-0.12341859849159187,0.0006069237114323944,-0.17540023376112965,-0.07799034682376663,-0.06833367088311829,0.29934409368278697,-0.17617659595612045,0.026204127146274514,0.2566407910956286,-0.2031949773739492,0.09393284978379424,0.11012529273567079,-0.08918635571923214,-0.1849592132198113,0.260313572724662,0.23309728431709292,0.06265279693544545,-0.285862577023482,-0.0411469496525268,0.08113301700690834,-0.07935021590860872,-0.12176036665862458,0.2061070041296948,0.048480324259372265,0.1517280231851903,-0.1809766958868327,-0.21040407447944184,-0.14886901400902677,0.10722433067664505,0.2661142666754775,0.29355537634098755,-0.2173978909975227,0.26131512103678295,0.1841815002725985,0.27653301919613266,-0.12059408652996759,0.18536241977922857,-0.2324610026653655,-0.27890068140462104,-0.2704165149551259,0.18917561764627722,-0.23010029141427613,0.2734605235374811,0.036409478345724944,0.04831337473979208,0.2430909624359256,0.24964482308896002,0.07229873497616929,-0.061103720484091684,-0.04128645062238412,0.10284108829724048,-0.029573913974357824,-0.22374322636997518,0.13369223481502396,-0.17536599579771817,0.08573743049970267,-0.5056719120092816,-0.5100298426891798,-0.28593655597205087,-0.3401642040708917,-0.6571984668612998,-0.5952607625293921,-0.07009931235986866,-0.13078683684664694,0.07688201970634512,-0.059737690216030814,0.15729181915216328,0.21787644440784293,-0.11531601069075803,-0.1879791682734771,0.12206538908418862,0.6055023108221809,0.28417116859798625,0.9989647347648081,1.0572559904422754,1.1985163832027261,0.4982640172204944,0.5849411293303972,0.5386957857728025,0.6341666378565773,0.4850202784376556,1.2157867988679518,0.8410623502865775,0.8171212544041055,0.7646541180819852,1.0975436102462468,0.7328875113319617,1.2391876165590467,1.0299628777807628,1.4928766312610426,1.2660319034198744,1.3805104622238094,1.2171905197692359,0.3795541427645279,-0.0006082580769027901,0.16605856138725983,0.6892813024052247,0.3152031054486014,0.6240336655796375,0.14271749662904798,0.1679993971148238,0.19487841066950495,-0.27858659392401036,0.19814730097159172,0.10341850114976747,0.2717221172353997,0.0617933586902934,0.14702359485480565,-0.07988895371842147,0.016147355835150923,-0.032436156700142715,0.21264611588027998,0.04579176169891497,-0.6215956911877671,-0.5152748833619815,-0.41243456148792695,-0.379770772320922,-0.28047286540406474,-0.6265810857223915,-0.5176514442655721,-0.285333520328297,-0.4466034979115266,-0.2620923047315314,-0.2816311587441051,-0.7529259318255235,-0.009789515018746087,-0.029387442560541044,0.07601692624271161,0.11975994408306173,-0.09949891968142083,0.08770253173999076,-0.2898194821483356,0.18184514697626847,-0.04746704329888035,-0.2962344893173117,0.19347622785525292,0.19316861671045799,-0.09378995845731483,0.11298188277768345,-0.07746479104057838,-0.19523114493317772,-0.19028897083679774,0.11007418685024095,-0.2546016758118969,0.05536559807498931,0.034733608196559906,-0.06868096702179322,-0.23944759656317077,-0.013117146211905628,-0.13388556391284237,-0.28421264451997214,-0.2925061037484572,-0.12683012734470087,-0.21235489108372696,0.10360870976914582,-0.4255826410176556,-0.33088214513037356,-0.7012097722455698,-0.786146504458217,-0.6864652306553712,-0.12803796619822755,0.18605559197368038,-0.2696118920681798,-0.08557515640403679,-0.13750941226054259,-0.5359220434391881,-0.780281383478258,-0.09545451267571003,-0.2030516293524729,-0.5032008407460935,-1.168542830670382,-0.25819831147111594,-0.7249545099522532,0.2915763782195171,-0.6671440438933831,-0.4498847256432209,-0.6872475421522698,0.1816575343676532,0.17757104961633896,0.10152852602539153,-0.08309989680537133,-0.2335412321128031,0.11070563344015083,0.28266594148940816,0.09527585478517997,0.28105664174230505,-0.1721344890747305,0.27208944860439854,0.0773876230089614,-0.28825363557187755,0.17093214754923025,0.2392120007397578,0.6948516839732077,1.9230764208703497,2.0731173807489673,0.9387209401757941,0.6216156686778898,0.1911110422666078,0.7510123875291974,0.24875549181396162,0.6399018955589417,0.707060775666541,0.7552072611837102,0.7390241740764099,0.6278455450129592,0.5181800721341128,0.21847678758750155,0.7924256912164929,1.7272837478313177,-0.6159198291458141,-0.4191532816587243,-0.5172497096450496,-0.6621692269823278,-0.7210541208000433,-0.7402216426431236,-0.3597225774193483,-0.39294116051034067,-0.7954702072965143,-0.20506878003937162,-0.404313206788251,-0.3072729448099452,-0.2804471263847333,-0.6999542370755736,-0.2828496334212552,-0.2610212508593504,-0.6507357100956188,-0.34816850873635635,-0.5536833342635252,-0.05515245748988318,-0.20199357324819553,-0.2843442479979664,-0.19806647188617288,-0.27114128130061715,0.2804589138880906,0.21740914487219704,0.11214033496635256,0.18170912823088764,-0.2870243736062081,-0.24257398977263706,0.021556704929000525,0.06679816614766199,-0.05243328919492632,-0.11657261381233286,-0.2992544778534887,-0.15759076248449383,0.05636906454882773,-0.0981538332577229,-0.06552689091349659,0.1291652812711106,0.10362478470198228,0.15059329441222913,-0.23070620692286797,0.18449628895317965,0.01945933069664496,-0.7608176123832164,-0.8249714621321951,-1.0181926989505308,-0.7078210135300331,-1.2011965978801458,-0.7395353691858259,-0.8256069201467735,-0.9074347884798326,-1.2668457946176084,-0.7118235115844607,-0.6412815535216196,-0.3257203257387249,-0.7365860122720034,-1.087206241223291,-0.7107467734979803,-0.20665134136579844,-0.21132256088184542,-0.00473696105985999,-0.5834721431045163,-0.5143691054706245,0.26533340193432653,-0.16587154665410453,0.05730430944420428,0.06246759181767292,-0.25427956096763016,0.1290103370824398,-0.25445718395721983,0.10740723881332248,-0.03890577651771854,0.2740217837619523,-0.07777406423475508,-0.19175158625006983,-0.22348356386031454,1.8368349461556983,1.8647287865803452,0.8158989884007339,0.9519705852664724,1.2044475951570188,1.2536154018413406,0.9647452805142958,0.6342826948162381,0.7853802153358487,0.7165441228532909,0.9634106867965015,0.23538094548214916,0.5884450093223692,0.7253986328547537,0.2734639421503178,0.5270919172990718,0.6431656715724001,0.45164909598441083,1.2568527865762675,0.5586080639945536,0.6661867878849133,1.1902092140557137,0.37148180275128084,1.6407801490595944,1.4803398735775655,1.4945433648739623,-0.46750982778506067,-0.2929963953387948,-0.5158050650332998,-0.5383606810038983,-0.21682101259022263,-0.5261796411341364,-0.5094923757129647,-0.580154181202325,-0.4648530011755395,-0.7401652961866411,-0.6694360999024545,-0.3429924303258555,-0.2481752549597523,-0.6592639147762618,-0.530964375928561,-0.3586751975478707,-0.7011327104637813,-0.26865358783721777,0.22353722827504624,-0.1680313170575251,-0.1625895834831738,-0.11407125208607086,-0.07153536699024468,0.008572245442648285,-0.25679541060524463,0.2682579080674909,0.035761959669232124,-0.20896394069849833,-0.07952049015168008,-0.20365789033382298,-0.17478724055068148,0.2412454590017598,0.056848404118261864,-0.20818660142454365,0.2063111832610956,0.2028022644143826,-0.2011435644686502,-0.1111657138265382,0.1356128284832771,-0.2230722816428437,-0.24300434821319689,-0.8709678883061464,-0.796909460037899,-0.882844556773027,-1.4710870801333176,-1.0628579369233329,-0.767002651262275,-1.2757961358653491,-0.8526495687959629,-0.3464591652914726,-0.25437198218866564,-1.052901798449313,-1.0565544914937164,-0.22422306674571657,-0.794032080193082,-0.2719366964603578,-0.6218611464551649,-0.22581140872937855,-0.37213179661343776,-0.015435989077438261,-0.025212712535243265,-0.1655479282961323,-0.2675107772236758,-0.14332362683162114,-0.1684921170306507,-0.27231778324362976,-0.14516297976540637,0.23241045483307077,0.1542899371180657,-0.2895004205784424,0.26500019116705187,1.9446016989314487,1.2292804816619611,1.0471827113120513,0.9861008688501387,0.8430500620664922,0.8723519604367032,0.7305902343850268,0.80575996011733,0.8031145605974679,1.2602239785437135,0.7445577748067911,1.289667918413615,1.20237998332815,1.3215733850561913,1.2404090134611154,1.4077384098202188,1.0522384076861404,1.5247279119879718,1.2403850594514298,0.9008204797560302,0.861423277936006,0.7231752941116938,0.20835957341242106,1.0106339615723834,0.8517712436197669,1.1437765936549098,1.1814471620003189,1.777736805685203,1.7772811247191083,1.731344548001676,1.4320649720653575,-0.5457938960509399,-0.736767023738838,-0.7623748016064704,-0.5894585138728763,-0.5014940109505163,-0.7317425561341656,-0.5465429742625825,-0.4814205195274539,-0.4373110215753024,-0.3404545653838702,-0.727632123147319,-0.7121111632640449,-0.7523328409190005,-0.6490717094491069,-0.640353484401155,0.090768501933708,0.2635183148413896,0.26787876913889247,0.20912624759211523,-0.0019140007796841774,0.22032426374545494,0.2238252992687308,0.12656669975100632,-0.120864118709571,-0.2618295969011975,-0.030501066468034632,-0.002198902406995551,0.2356756862693941,-0.11104804562735851,0.062274039863905284,0.13709516487295975,0.26875236368009264,0.008913359166576929,-0.2312649662959767,-0.2014158221269977,-0.26141780711449064,-0.264392552093311,-0.5963796639639372,-0.6147953279164193,-1.1572086230752117,-1.201507614760867,-1.376907160201173,-0.7996318127990321,-1.2837754676824724,-0.9747816313080572,-0.38494344431180916,-0.7350559859417731,-0.7694244896737872,-1.2197385173512756,-0.634249530294869,-0.7084684183230746,-0.3265108820918783,-0.49283739830617446,-0.6457073902140058,-0.3885054759818072,0.06087780960369482,0.25835150563678955,0.07634617145586953,0.2255040179810588,-0.06633423778547676,-0.17692832601375563,-0.13591281887204643,-0.016665098148751945,-0.012500720016206723,0.05774528540186408,0.17167533651321532,-0.20805448554953854,1.022936778459206,1.1947467917275851,1.1500497535404337,1.2033105687252998,0.21615584354059614,0.5684560753686374,0.36399489887840897,0.43294775960873766,0.5623215723910713,0.31073259156298194,0.25195479193138204,0.28971997182659814,0.6799652805479839,0.6102900937667735,0.7213742786192701,0.5323073854788696,1.2550326405333552,1.774813097439254,1.2630044469917205,1.2136318384979057,1.7210072104297511,1.7259897876437003,1.3532837746446296,0.7507989434479616,0.9399462126194702,0.9577430571068906,0.21678912994237098,1.2620112881642749,1.3655696451575756,1.3921244123739334,1.9552862512954947,2.083284493894422,1.601774195963892,-0.6577052923876703,-0.330748149773831,-0.7547590084927176,-0.47798404783296855,-0.6742637859052039,-0.2522832393353956,-0.23580747786732453,-0.26819498652599644,-0.2007639696962626,-0.6825770245896469,-0.6288026438814895,-0.3248826007413343,-0.36521118444045186,-0.206864412644107,-0.43502717935736845,-0.7800849604883822,-0.12757774451585593,0.09876837165758307,0.15805321657707827,-0.12110186970119252,0.03366930523845113,0.015217585619779483,0.004437985767832164,-0.2233822236309057,-0.20190042018151827,0.29664530529939287,0.10402897461062066,-0.2593492795708125,-0.20590406066142003,0.04471561901644755,0.278435848091425,-0.10660513284881529,-0.23808376244800916,0.2735184957331061,-0.2772457906725609,-0.4585320168962955,-0.47357222495749457,-0.7634573638316389,-0.22004357921793555,-1.2230932823725431,-1.3685730145235184,-0.7734108111543045,-0.7397060119467975,-0.57962067230201,-0.2918312969105832,-0.7242379200117723,-0.8281630853671245,-0.3806177836109449,-0.2789165510098126,-0.44193175160638787,-0.358394743415973,-0.3833333074815217,-0.7840433488976111,-1.0820660692299946,-0.2541631407383844,-0.3900327130343413,-0.3498016936386361,-0.7025624075656638,-0.989779195539267,-0.989578757014816,-0.8187647245384733,-0.9356575378250986,-0.7294784322479462,-0.7192132264871509,-2.410693552326208,-0.7574836779516763,-0.7540500649325144,-0.46080494644095527,-0.5117246883374371,-0.762981374500614,-0.3744179902704483,-0.2012604758621659,-0.4973527100595114,-0.34219858133801573,-0.2700149088163786,-0.4983338380915088,-0.4426672472934402,-0.2829126047828645,-0.3335031617779384,-0.5669431825448463,-0.7300977903418842,-0.20525001192988346,-0.3281089428971169,-0.3555781696800797,-0.23414469799328974,-0.2926217571369758,0.0602107588152494,0.7809953250295691,0.7764658885870019,0.7172842409301619,0.2663315207731476,0.43211684039105736,0.7064418068105558,0.7853224702075516,-0.28051327486432975,0.7726857852946578,1.199827844482719,2.11651683933094,2.0798956949875502,1.9030930950384288,1.6404949886493134,-0.41214568982838384,-0.27387461691200515,-0.48145293511434356,-0.4396538739539221,-0.6060849213280793,-0.6378853162307909,-0.7046710552924873,-0.6146318815935676,-0.43730397294772544,-0.21257325276896283,-0.20086105174471008,-0.2742298200705418,-0.3456276511332112,-0.5830957301868872,-0.20339915346681087,-0.16153803363020733,0.05299003059540536,0.1432915495715178,-0.08951336523625358,-0.008910398686591214,0.15890363925820578,-0.2056232760862452,0.0012723907480751695,0.1352586556637128,0.17660193063343244,0.22762567362210978,-0.12905935868886717,-0.2589132985673822,0.26018777222035566,0.2292706577122317,-0.13973763286279609,0.18258894020690386,-0.2021866589119557,-0.6552127945411513,-0.7140674454603131,-0.634109851810633,-0.7257982617882632,-0.6728809284065953,-1.6771428739659249,-0.97852819836832,-1.259870099547253,-0.9611159062114087,-0.7973241798735686,-1.1510732073173315,-1.357926225636308,-0.8554219785894042,-0.9593740059828239,-1.1227907845619294,-1.1938498282289909,-0.9644027294923366,-0.855885759267728,-0.5611096375736979,-0.6607184726777589,-0.653786751380999,-0.29142049310469176,-0.8120513763249146,-1.1498327528506433,-0.8731109751381324,-1.0486254729024802,-1.0578718618921101,-1.493114479167676,-0.33617044975669264,-0.23710491305942205,-0.4487989455229978,-0.47195203806766206,-0.5371341874725626,-0.570255808764146,-0.31072654047696324,-0.5027829315253038,-0.4760130304342457,-0.5204035629557218,-0.23661465279036253,-0.3810057489389145,-0.721651287810486,-0.2661152048822648,-0.46448309640322605,-0.3448265064010765,-0.7448104128374505,-0.2696251951308055,-0.41357777237043103,-0.5291488022494303,-0.5049268484122871,-0.7327861256397389,-0.6642834177185533,-0.4773023122280107,0.03785247374491241,0.1861305351298541,0.6812185218883755,0.44117331938723603,-0.04272553144617053,0.7357311918541019,0.7540290400020695,-0.05334174284885951,0.262481209626771,0.1321303937465712,1.0498775160570242,0.7412268569760436,2.0240949671505817,1.8271708735006413,1.8706283299581599,1.7240255805957956,-1.2284224601955054,-0.7904508516983526,-0.4501475647483967,-0.5917512330559438,-0.20615554877951675,-0.5146839241798488,-0.7022556774292401,-0.76254331768953,-0.5236315255106303,-0.3923085324777931,-0.38935083397332837,-0.2692031470845175,-0.7443418487111515,-0.35052876789100224,-0.7800707128895761,0.1952581208306301,-0.2818331580439411,0.26408394392593154,0.2945251494957534,0.1879672668511035,-0.048696235951442846,0.0742062909445318,0.09324991647584124,0.29198389787820583,0.13131965790533173,0.2852260164352059,0.23212091701158682,-0.0660024780518555,-0.04830473035479177,0.01567522679091471,0.17123709754833505,-0.47618779383854026,-0.5484881764998244,-0.6371061818015382,-0.522604846046189,-0.5483802309712954,-0.6463912943720965,-1.073932674533089,-0.470293878767426,-1.1532567152010382,-0.7802452251449103,-1.2072310613104942,-1.725799162500648,-1.1029372866749392,-0.9248510894347517,-1.1689575124729261,-0.7300990776669207,-0.7581652302473971,-0.9470568819533306,-0.784119280027999,-0.45160736899067966,-1.0996759096789694,-1.0387645233440788,-0.7843580556895717,-1.1520485962751708,-1.269145130729058,-1.6843136127996203,-1.798395622274757,-2.9107619338086734,-1.1479786944453556,-1.2945811586915041,-1.0996384076950645,-0.7038661960279546,-0.8611368849581811,-1.1103873431207556,-0.7923562383500884,-0.7846638684290688,-1.0847721567353945,-0.8819347240722359,-0.9246416362917274,-0.8537335153483636,-1.1933434103222853,-1.2302564462208927,-1.290625843848557,-1.1494500135979073,-0.5752137105437766,-0.20952478231001237,-0.7967134252056333,-0.5146026959724391,-0.321287939078152,-0.7360056627206898,-0.26210278052328784,-0.3943310980179685,-0.6820112362240978,-0.458951039959681,-0.07382141854673152,0.3463542564161055,0.5028208165719952,0.5365804093518978,-0.01925307696661349,-0.09782025719004839,-0.18221690101693744,0.6072108117122108,0.22070233276996865,1.2035711850101147,0.9607428092431161,2.176274164770793,2.231915326749835,1.8266785233625935,2.0990651723176974,-0.3363068330220622,-0.3312035330796663,-1.298864170066361,-0.4886171126830393,-0.484881853266815,-0.35944168158385736,-0.6797826010489182,-0.2583953068624259,-0.30385012404879813,-0.2551343539184428,-0.646402444059672,-0.7226326798220554,-0.30689997519126105,-0.6514451869700636,-0.21751553410814056,-0.09460469029631877,-0.2990381466313871,-0.11589116344028275,-0.12352802594568005,0.05640961765551511,0.2962115175704932,-0.2833562578773639,-0.1057725426798039,-0.11440228662482646,0.029387180899243304,0.009924765542599967,0.03467627945167995,-0.017675939990887957,0.1724963841460158,-0.12201190159261305,-0.14235250321159545,-0.5792011019227605,-0.5262897672851069,-0.3776833567388332,-0.4732010630173996,-0.2825269301638547,-0.5790959092137827,-0.5057276966900867,-1.0675886449672367,-1.2112776590076142,-0.9464955225157065,-1.2562035544649288,-0.9315717775689812,-1.5453861165089735,-1.4058304774373245,-1.7474686271786455,-1.3063471251469498,-1.2719155921789762,-1.0674016726759792,-0.8650764297736614,-1.256707460418509,-1.7808093067906823,-1.7856466831970963,-1.9691845289319927,-2.030321123404855,-2.2808013943898002,-1.8342217630869744,-1.6084687741840575,-1.554493618084964,-1.7708729833129033,-0.11970275708027467,0.18015629398627808,0.2179265043127736,-0.28695573200112534,0.14385290556892683,0.24934675616459878,-0.29459650517325087,-0.19594933270995707,-0.03805609292123768,0.2552061570631803,-1.2242389109362453,-1.7678820789802174,-1.6492771825780164,-1.5110816564184837,-1.2177056720086583,-1.7283359802396996,-1.3428444547467109,-1.5276492487105013,-1.723205953093788,-1.1994382982809726,-0.7285495059626561,-0.7911322354875794,-0.9026246180907167,-0.7742899966822923,-0.952382431107279,-1.1952793111934823,-0.3040272651096545,0.6495858135300521,0.7912562534338128,0.7834465312240146,0.2963697799596803,-0.24170774560912367,-0.09269661334459744,0.6936069658628587,0.9957254139997702,1.2310988644622798,2.231917201989156,2.266677733221824,2.1003550095250536,1.7815116507563675,0.20896556263170024,-0.48313094465121054,-0.24534637702514583,-0.6891565130448318,-0.4945964391419442,-0.38653003347370757,-0.7257947794464463,-0.7942185393390069,-0.634861086028303,-0.32273126403956864,-0.5840100893920345,-0.40119591420164913,-0.5195761556739884,-0.7043503552876944,-0.7242140414433877,0.2456484944566763,-0.22858265595026717,0.09558229702487975,-0.026988118104444514,-0.13253934799363543,-0.11882854748560087,-0.08660822030071083,-0.07680235240115407,-0.0650951832369985,0.23422850470791928,-0.1882481819570077,-0.08129771470948169,-0.09822234076067965,0.027355850000901016,-0.2687733781711413,-0.7762704932407953,-0.6836541260841467,-0.7150694520599049,-0.366241979076643,-0.7442159503115813,0.22752322996292262,-0.214248717683227,-0.5167832084020438,-0.754536911943031,-1.1515114294691362,-1.7637606552393401,-1.3821255869198792,-1.6038900424069842,-1.2682935467270529,-1.2723351492564974,-1.544171230817177,-1.6604409658645563,-1.202519762730378,-1.5188925935168114,-1.6424066938405226,-2.041200564805839,-1.9447822048743577,-2.1737763311036735,-2.1739369207215127,-2.2245983749013436,-2.729269702441182,-1.5945874560473978,-0.04974669398456211,0.0835118737342313,-0.2895908974786112,0.11037690884951701,0.2895562159523195,-0.27680201303303775,0.10891366193682572,-0.15517282942101307,0.07067578218414605,0.08857190780917512,-0.16488125260152153,-0.2101245598294672,-0.05729738684770602,-0.24706482833649712,-0.28572235113321875,-0.6918803055267022,-2.139495776254853,-2.178300999371829,-1.753641489554952,-1.9708653923262047,-2.0743996844069796,-2.161167656888311,-1.345767287899947,-1.5259329160354094,-1.510198416226837,-1.2069791116844435,-1.7871511090977432,-1.64027254087476,-1.7253925774622738,-1.1511048274710038,-0.78834260869728,0.235951271603144,-0.11611564062766577,0.19712465966821946,-0.25892518426070255,-0.5803803257196617,-0.4895636475856704,0.578649339904896,0.7667967480170053,1.4578014001424286,1.4986335080826751,1.7400496213693444,1.5353149714127996,-0.2041671807153032,-0.14150074500442522,-0.31710306753311346,-0.3240854065897498,-0.45003466326038377,0.02627062995527074,-0.5393340986243491,-0.6863419415929627,-0.21777255633725906,-0.3743519909118469,-0.44146233804732965,-0.20462342555056362,-0.22375953854816372,-0.4782923810375267,-0.6157207110199998,0.1278080780299165,0.09610214116765448,0.025533169532780398,-0.17323879582510057,0.13266906861614475,0.22890604263412612,0.07015555637116777,-0.26720770996302706,0.10030862545742592,0.2631734377156684,0.06321564330401425,0.18133168144178918,0.10325796482818606,0.14762190869310315,-0.24853126806326145,-0.3348924092531253,-0.7895813100144216,-0.4794541865271233,-0.7167954670610353,0.12577680021474724,0.21772071616194982,0.08472512383434372,-0.34103653119498095,-0.7712073188967132,-1.2003076528850496,-1.5087181294389242,-1.303056728060683,-1.5358695139324063,-1.4432765553168514,-1.6594342356165868,-2.289764071373343,-0.7379999055247513,-1.6517355085814813,-2.000725649511291,-2.222444220847116,-1.805648025415045,-1.8450953344095875,-2.228447457080626,-2.1055152018325836,-1.1452524859976085,0.060883679527383716,-0.15939753949483126,0.016241465391554355,-0.09026935870644959,-0.08054190812879636,0.16302507556412071,-0.1723279465919405,-0.23571761308112826,-0.2297005039869886,0.1412380978885901,-0.004117307203936882,0.1799165051657834,-0.7986728646531209,-0.4585649343006283,-0.43615754206806123,-0.44947965467723616,-0.6260656642205777,-0.2616172628327147,-0.3620043456404013,-0.42655341028791005,-0.33575440245319665,-2.1972912468230437,-1.7994436345087435,-2.1159825307978015,-1.7556577360299581,-1.7591712915357631,-1.3195748655645043,-1.5345078939098076,-1.401245277480755,-1.3857928689935695,-1.6104602129365233,-1.6942317150717003,-0.3184806330458545,-0.7691272787304859,-0.09369946037706578,-0.04171169537045172,0.02135680294617215,-0.19986313797852606,-0.6347657753563356,-0.04516503797285287,0.29240439319711964,1.5820588523982941,1.6134622480800673,1.4848640740508738,1.2185211041999613,-0.26701827429807884,-0.7615065843996155,-0.6756404323456614,-0.9792588225392386,-0.7902914958225462,-0.2703337126400902,0.25966000866081945,-0.6509589297778957,-0.609113657423189,-0.3089130820575173,-0.5717381562373478,-0.5527998316272059,-0.5474589068828551,-0.6775388325642054,-0.7277552898997419,0.15607845113221303,-0.06888608367961715,-0.04408186900248057,-0.027270663911372783,-0.08876750973092307,-0.04302919399476718,0.05609297466025931,-0.09783685168893216,0.15630691138767722,-0.08079051110975755,0.23185189902497233,0.2772669042889096,0.19014871870371136,-0.25082257736778085,0.14842482652635997,-0.48559831300171147,-0.7403558880043287,-0.3357223342115603,-0.20362331475995715,0.3079582038586065,0.21849561108050497,-0.4597585403970498,-0.48366622023734446,-0.7190521329582015,-0.8280627899303352,-1.4025086217647076,-1.6493069796193156,-1.4756145437136428,-1.3841246021828373,-2.2930615024958687,-1.118413448613961,-1.2729021774370621,-1.7160640479829328,-2.1439675791218225,-2.241847087963823,-2.1658436020715466,-2.028047942934598,-2.2091453965856735,0.6817836491206073,0.6007525150728199,-0.2691921175445018,0.2179021225673634,0.07206761670797035,0.14990458424153374,-0.01720795504259609,0.14408608511684529,0.13347397962453078,-0.04771274826277283,-0.21221323288953142,-0.2283488049374387,-0.39605820707542894,-0.661508640870691,-0.22213384758005938,-0.5386789105165475,-0.4125140497546038,-0.34368293044671505,-0.2396180485433601,-0.7720428598292743,-0.2183242717219438,-0.7032269105678548,-0.56857931357345,-0.6704090723561573,-0.36289363367538374,-2.2749132969871146,-2.215275055282932,-2.1024201526667348,-1.3342435802813588,-1.6465102081558707,-1.7046350465752154,-1.7558678998337873,-1.4518214690733668,-1.6901182180122223,-0.6139094860181664,-0.699222519765688,-0.45442126050936205,0.06551192770496295,0.09434334954823598,0.18685533889827055,0.5621520035410579,0.2599895048371612,1.378100484491763,2.24061220189871,0.7989231146822564,1.4005277822930942,1.5624086304866607,-0.25813804935901424,-0.3714312939091927,-0.21225721821551696,-0.3713784231817314,-1.1337152689207903,-0.5270736086055523,-0.09451815639430716,0.03229799366498887,-0.42443584361955783,-0.6447529957316691,-0.716232627144211,-0.37484198820809717,-0.6083893696477352,-0.5372617782834483,-0.12849080014035294,-0.1322171334281157,0.25856343831246115,-0.1839620880014416,-0.16033337890767352,-0.06571337602430066,0.19018782636196702,0.11958224824705294,0.12277199055731458,-0.27453853700556224,-0.08430083616475562,-0.05395787408980576,0.0801173393229061,0.010665915445633223,-0.12968363071745118,-0.2044861414838431,-0.37359993365140903,-0.7966170341131809,-0.7720126332430355,0.41259183740522487,0.4203381819490152,-0.05170459078433898,-0.6437372594970308,-0.7125268658469982,-0.38096593621603464,-0.7860451722087698,-1.1808652622632645,-0.7548669096901695,-1.2707612869623546,-1.05922857457871,-0.5705242841025335,-1.6218722609837064,-1.2920604258833257,-1.385802330447163,-1.2406796317605207,-1.3610643699708316,-1.6449611597401592,-0.15173536963656553,0.973717000803795,0.9085054213616717,1.0797182242111139,0.6697052381785369,0.49342773613000035,0.7995801657060373,0.5784737924875984,-0.08622436366342634,0.10996890071899224,0.17921966046654547,0.15621905035300832,-0.650051055522602,-0.7299882738358139,-0.4295193623150889,-0.7241111059656609,-0.5723529906979365,-0.251757073961282,-0.2125883974830871,-0.5983854815442784,-0.7296282269149601,-0.24948313453832327,-0.30563775430427653,-0.7991893134072372,-0.30730710015374973,-0.5646182982227681,-0.5889475638969905,-0.3729991532005166,-1.9994640286732868,-1.7034670030986514,-2.2496875223377533,-1.6400230632062238,-1.2118637558697274,-1.4564719553647825,-1.2846327995397766,-1.546753324525159,-0.4912734362268565,-0.5137467443232612,-0.2806350607384822,-0.10920074242427225,0.22100131439036397,0.25372405444753743,0.4297847256073537,-0.11063519460138505,1.3609111878281162,1.7490755791301518,1.2823663953530156,0.8262641064507543,-0.39604298714971703,-0.5028060982141327,-0.46978606922945315,-0.5574779808569101,-0.29428313476644713,-0.21714315784801536,-1.2691079520804929,-0.929862207800198,0.2443996289327492,0.27569321395185015,-0.5999036824183221,-0.40143639735405584,-0.29096943256681723,-0.527629898000632,-0.3565548136328334,0.10067341736386021,0.2756999648313733,-0.12338389789918527,0.14078056893742075,-0.16068915382957036,0.2647896385579263,-0.10284829449492597,0.12812769924480943,-0.18817464345744694,0.10834609618913182,-0.050726626499042304,-0.2863063848993706,0.15374541378169676,0.12868998869818665,-0.22088711223860358,-0.7075927718728848,-0.64111392943129,-0.6314700743415902,0.570389003906041,0.7406038937940502,-0.10989924695296005,-0.14505744268556942,-0.5462813737026345,-0.5959283489868079,-0.7175308634032851,-1.2586449330121554,-0.7084597528173124,-1.2240565917553763,-0.7740414689045576,-1.0436866275985133,-1.486645815375131,-1.544775759043267,-1.5672332854856532,-1.6922979259089561,-1.4353580594392599,-1.5753691497194104,0.03942899682648515,1.2764401362188664,0.946609381240457,1.0322068978472723,0.8086503357260617,0.6363239598826955,0.7907698684817777,0.6935435233716143,0.4369251939147889,0.2976177897693857,0.42279892700308996,0.5112343892212112,0.1427539875284315,-0.19733926692995596,0.04252452990188316,-0.49437421088252964,-0.47398453186557976,-0.3334574361029201,-0.35180731177921654,-0.6111312752686553,-0.22476493564858124,-0.5625767407813649,-0.6309543959753454,-0.3155228216621283,-0.6207677989471851,-0.2242488527443678,-0.2113548806951151,-0.39073312577310315,-0.43053466451286526,-0.382785212645133,-0.4697586557056319,-1.9152284189666426,-1.9155091607701686,-1.7136983768197482,-1.5734609930413443,-1.2850715429184196,-1.7605803486549032,-1.2508566470112312,-0.22424817679803022,-0.23897693697729694,0.11164989770073008,0.15391892231598603,0.231547741073997,0.766038530326326,1.698223053773222,1.667129722899693,1.7287738284794685,2.2423294847044772,0.7223436637145422,-1.2175098559256465,-0.48401133965424126,-0.35483912749401386,-0.4069375316038565,-0.6979146102902729,-0.5432397927013574,-0.797678573340382,-0.8146765620993827,0.25049271237892606,-0.06280794718593963,0.21862637919732403,-0.5610538817395156,-0.21383510157310254,-0.7637535883265465,-0.13827390509601498,0.039457286885079434,-0.020477440230482036,-0.016149714996285147,-0.07160050147066005,0.080300240082258,0.15297946998544526,-0.17040557890229135,-0.06786549696109376,0.16415752683477047,-0.24963829354640618,0.12058635056660544,-0.292208959153562,0.003131260387772117,0.051604920253269015,0.2926327886633319,-0.7976618708685558,-0.6401889286805028,-0.2493881236898653,0.47376206968227697,0.4906927429096514,0.005287638269810602,-0.27877357249572404,-0.5948329785540372,-0.17189738223692153,-1.2390822072901997,-0.9235252454998208,-0.9594244606580138,-1.1067377288991025,-0.7399218431292955,-1.4919524967874966,-1.219047074127849,-1.5813876511627507,-1.3910965190457396,-1.7075406911992803,-1.700183298185432,0.14652683978313275,1.1584395414810784,1.2672625703040314,0.9987293830446675,0.880081001277663,0.4040075583393652,0.36916708907579465,0.18569611165046762,-0.07548195025114657,-0.06495580988308425,0.20620200088367402,-0.7621107836446217,-0.6120679430673803,0.1862019224466851,-0.6974397154651197,-0.4459205542774779,0.022084179633524936,0.08774526577198949,0.08621710785635983,0.3452180315644209,0.24042474021856464,0.20638311005260612,-0.27087763316083113,0.09661756680050637,0.057641475766730954,0.08910595839817015,0.19752287273327007,-0.15273211246550833,0.13379161307393017,-0.11016613191609248,0.16740397322862044,0.1193721160722998,-2.08885370355649,-1.9054538307666107,-1.7986603626080113,-1.7218903997300632,-1.309435047028784,-1.2944318422138685,-1.043963163782634,-0.29994844650377206,-0.521138753381418,-0.7830432431915209,0.5695951645626305,0.276759938794509,1.2880312154985654,1.4292100948798754,2.198402039953809,1.6363984150918363,1.9937264259275982,-1.0523229110621823,-1.1659777274868621,-0.7161692383859697,-0.5699808621566756,-0.3028141277532412,-0.49603103035034407,-0.21127138027165165,-0.2728441760648474,-0.8320904354103533,-0.569968084967572,-0.16501310278636305,-0.18294672380200716,-0.6872620901727474,-0.26411860735227793,-0.7904110087086318,0.05030489874154476,0.24669409770302403,0.277428284216463,0.08441021581348052,-0.22213682908531773,-0.20372059302821366,0.12865160073649884,-0.1573545715285575,0.13484353079141703,-0.22271714349930571,0.024986248793074373,-0.08455975454275161,-0.28276978709535777,0.26808362123397816,-0.2116790188686738,-0.11845624892025572,-0.7997203057346401,-0.28612780929437454,0.5971611028084363,0.5241615642279323,0.4534919482868909,0.2213805355348264,0.25343694942890505,-0.2818476526327415,-0.47443265576240273,-0.9572709711005043,-0.7409420994042448,-1.0292714791759678,-1.0777249981101722,-1.7178495843848656,-1.4105321746416188,-1.2631815164802114,-1.5858406952188564,-1.275116058723502,-0.09578591634919242,0.28318272382193177,-1.188343250662856,1.2685776816411423,1.2237151152308623,0.863941436285633,0.36211020043252606,0.23451096252706027,0.05661021871826788,-0.7012308833972989,-0.3734273422485991,-0.780546862144196,-0.789379901560255,-0.9951213603318292,-0.8841501057215433,-0.8917209662599852,-0.6077272914339265,-0.20239417475924748,-0.6999996286767847,-0.6018859980133633,-0.4697526253417257,-0.6784515199054235,-0.4041324787228566,0.08054596597349173,-0.7485657366100451,-0.7446172697407953,-0.6319088402912885,0.058011903862683734,-0.2393909614605474,-0.2860973940376692,0.23166053264259867,0.19058198064942022,0.19426774123427437,0.12281629236834368,0.20963032713954521,-1.7308656378439355,-1.614775189653884,-1.7180978937432418,-1.3556646241647288,-1.5051110826316298,-0.9335120897446861,-0.05181029799780734,-0.010135706303587289,0.08672130460357863,1.5202994825383924,1.277833059973033,1.5602625981435043,1.482601743954835,1.9117970036726382,-0.2891932500760399,-0.060736949632038795,-0.45181964614900705,-0.7172938080460673,-0.9942293216271836,-0.23485909371116148,-0.726433342264371,-0.41644337385012686,-0.36738593457707225,-0.27668129676654024,-0.9330273164498281,-0.3633476752089127,0.2824573422886813,0.013818939540069797,-0.07711128224632002,0.06177751440228063,0.1681767232290166,-0.04494586998164568,0.12524829759927536,-0.05332462621463882,-0.2610496902409538,0.22890276388600522,0.25146547104111033,0.12925456104165045,-0.08806392978708283,0.0306088239698184,-0.14963253085797515,-0.14667080297149465,0.007886446114839185,0.2214779456021308,-0.08614618607479557,-0.026000265312623394,-0.139598577939716,0.14890176478669065,0.3798543250004916,0.5033316216542136,0.22878366156427354,0.7046589388960309,-0.19244399323253542,-0.28461241830258954,0.6448725883113915,-0.7197464752795624,-0.7545374298598702,-1.0713553666042346,-0.6091068378797792,-1.4248828006147605,-1.50783072323408,-1.4932126258718308,-1.5718099531588077,-1.7347530899232724,0.13525641651292464,0.23713140095760998,-1.2746391532127355,1.0804712989370384,1.0434889240299277,0.972775383124074,0.9471936388627165,-0.29232272351921207,-0.3656529402282065,-0.6787610538910203,-0.017093829150947926,0.1435464593189374,-0.2388874410958124,-0.3662017641810218,-0.25902521442166937,0.29631161438393927,-0.39044029395684055,-0.6824898204931258,-0.6845268479041664,-0.30756160128268206,-0.23086349473964884,-0.28264393905717156,-0.32718964298554276,-0.22877302875351146,-1.2513058054906137,-0.7642163742615531,-1.6954334119075813,-2.137216695368397,-1.6496618154073497,-0.9959152088690233,-1.1809884583488373,-1.2428971527678043,-0.731697927911914,-0.29197214611754285,0.496727943083906,0.7361834712182207,-0.6375366779822265,-2.4535677292320335,-2.551293296595413,-2.4575356659110046,-1.716179871249607,-1.6841388449783217,-0.9967067991205594,-1.1352930572887776,-0.985219865635913,-0.21801048135022594,1.3437447497501291,-0.4817318491238738,0.06299801780713132,-0.25149914949888186,-0.2134376287247527,-0.2761517838243276,-0.7451601821028695,-0.98323336101188,-0.801589469733879,-0.7880550237560471,-0.4350517332092215,-0.6217363080456227,-0.45356693739135023,-0.5500022619730648,-0.4813595418160033,-0.7740728450044337,-0.3842452632188595,0.4706035459443022,0.6691200761807448,0.6816855047412371,-0.11361892535505605,0.20329530222389175,0.07704528995926213,-0.25446135558733673,0.16977170590400686,-0.17330403857111643,-0.16067377783109751,0.12540390891711112,0.03133163554885948,0.27461455854217703,0.2341188388599334,0.18686941977229982,0.2096913069001975,-0.28445848959657455,-0.2147993100208489,0.04246027643800582,0.2716091589012127,0.1845443261577846,0.5247270859287914,0.6194897625944458,0.3660036679281393,0.22732276903334242,0.29703803316227284,0.1790592115688967,0.5613349432893433,-0.24979274780923522,-0.8819997378362358,-0.7405110542691566,-1.7988011834026318,-1.3050465494017915,-1.302616451045794,-1.4739942636328953,-1.7398475449939008,-0.18293812482065364,-0.28139833070759,-0.1519984219541698,1.033548406120866,0.8160713079249926,1.0196663296864155,0.3286646050485812,-0.17415994093087273,0.023316374416336494,-0.16991411118870137,0.08424254288379573,-0.23745363535276687,-0.35489063131126597,-0.690940270068662,-0.640218102381378,-0.27387203830116436,-0.8562028446249867,-0.7490156627967941,-1.2717488036705094,-0.993321986376762,-0.778961492905005,-1.1715542734530797,-1.583096644644863,-1.265848121336389,-1.497258192781941,-1.259143744765212,-1.4578254488985918,-2.4749348061807224,-1.9360758086017635,-4.08841731817647,-3.136529766186759,-2.8378428086156147,-2.2107406746659186,-2.0586781969192818,-1.735836356180609,-1.8448906185776428,-1.8158828746289846,-1.9557638202331984,-2.793365189846572,-2.2765538709149338,-2.3216669987201715,-2.69299829632852,-1.2936052161053413,-0.8268833468331485,-1.2863609258053559,-0.6753762025952499,-0.4004268452969715,-0.391281972490942,-0.4446552579713242,-0.1037658394482579,-0.20813062998869247,0.21694483685189714,0.6587704100055433,-0.005669447018484042,-0.21660571505439696,-0.7901609059519794,-0.6967211616834493,-0.6174844456858731,-0.5376720865813518,0.19383115335498147,-0.01661283214106002,0.12112391720507132,0.6181078533996474,0.029549328235102035,0.32678952465915345,0.4597528335590279,0.23607780999117017,0.12394293546821206,0.26596429059206256,-0.17143704055222958,-0.06498029421026286,0.13737515732839167,-0.18035660297402373,-0.00602696249610607,0.2663627206627113,-0.2322590901934579,0.11333415725270407,-0.1128265937673682,-0.18591343336758887,-0.16137733934546059,-0.07297622542861276,0.14198462276499313,-0.2936271521416018,0.010448901266711885,0.2034756085967082,0.6336816001762238,0.5356758987414496,0.49470605576845395,0.7064266800657177,-0.15137746777981365,0.22515482392753527,0.353521864400578,-0.09619981578594672,0.7291484091508982,-1.7129415342363619,-1.484712462947575,-1.2139850842785298,-1.4992582806773171,-1.7817759639702384,0.140102522536256,0.08874371774407985,0.1043884776261309,0.9905655942900857,1.058371399225547,0.6759386174549498,0.5668027265354421,0.19392346288238893,0.37491765151139744,0.4436092376500378,0.3017946260743881,0.5321672502405428,0.29942317113992845,0.6654588727881987,0.04869895063970131,0.28353786468044473,0.2668070995924767,-0.14774077259498464,0.16880217599104053,-0.1674131377470447,-0.24649676473495719,-0.2008725284298063,-0.6742015970462867,-0.4394022230509378,-0.5102538459458912,-0.24005095607303906,-0.5686963103781746,-3.1512688851424486,-2.362482578471783,-2.5273549597095344,-2.6077593841621347,-2.7050388533153864,-1.7032407153051392,-1.7254887493843127,-1.478046125908698,-1.6284855455914924,-2.142922936903732,-1.974071728841622,-1.3187739357499733,-2.786460713286872,-2.6467982048891177,-2.259100136012596,-1.8375448524501088,-1.656523639407329,-0.41208910702844515,-0.26063820163209983,0.03821831902258466,0.1792103095247053,0.06680923124535587,0.5370631126189311,0.23749335613500278,0.23489650901415415,0.43536866161204857,0.9479053506514754,0.6048256370421055,0.2462572698746479,-0.6444820377974166,-0.5017663974743425,-0.7912796560116264,-0.21073473470583187,-0.6527081889908545,-0.0019292071595182758,-0.02548719360498619,0.6025296663032118,-0.24103626393311223,0.5292064842428742,0.7382734614335202,0.29268421931082067,0.22652789022358893,-0.060485580492982916,-0.19898884711512696,-0.0955233262609993,0.21587309545916739,0.2489945682978461,-0.009001186659891913,-0.28070264211322155,-0.04326130628589242,0.004714672929250707,-0.11377010615820773,0.267427700598536,0.09073642078358901,-0.24889703354450024,0.26769120133424246,0.7339230310740552,0.26249971334584227,0.3585611327328875,0.2879832891252318,0.31889483907939203,0.3212090355887982,0.47261360586588735,0.27402832742335836,0.5650979357280754,-0.26200500751640693,0.443189233969154,-0.19522430731357004,-1.0257885278560368,-1.6905994559920596,-1.438303273915698,-1.5189358404614466,-1.7250354805205839,0.1395884389800348,-0.2931066763095497,-0.3660558461180372,0.7972316198051785,0.8033745337987332,0.777885065700866,0.6467340494685805,0.5731185199427251,1.587869705119314,1.0941452196970167,1.1190480052351766,0.4984998510410624,-0.16068470732186935,0.09148720888638717,-0.2722723537099865,-0.17463472365510158,0.6871392924642092,-0.21796504138577566,-0.5126655635655548,-0.798322485800715,-0.5071472695862513,-0.24502892938433596,-0.4597966906287265,-0.24859221540387422,-0.7304807611395792,-1.7768235686080058,-1.651851856476168,-2.0481409049672474,-2.2703138797311633,-2.786796768245388,-1.8137641309319772,-1.7910038415382465,-1.7735140587242832,-1.71380702753421,-1.2427617812141185,-1.6426065922745847,-1.6510814260405953,-1.2313795884516476,-2.1131628625182763,-2.1921314543549397,-2.715970831191707,-2.5072232481758094,-2.1028934846077254,-1.7496536321369338,-0.7067781876844821,0.1057337253254993,0.2882701233424412,0.5072458862211238,0.7613726559357161,0.5803034644990821,0.5805189086911395,0.46349015993802634,0.2767426453161641,1.1080501076194191,1.1437947418517311,0.17592035614901946,0.1417562334377067,-0.7379424505705257,-0.2265115030032963,-0.42552675426513353,-0.7761770214808403,-0.3622898685246901,0.22065899751109885,0.5723699456859257,0.27354434988968845,0.44138299733955755,0.7896211033840517,0.7912786993634846,0.7189987793511035,-0.17901391461659855,-0.12361810346535423,-0.28670071434615674,0.2564170102238343,-0.01774123442000891,-0.1895423607452008,0.03144363299279129,0.21726118297425162,-0.261037855983177,-0.23819333283658572,0.1281742384031525,0.287917852648008,-0.29611399385602544,-0.18265680408664725,0.6600700832756353,0.7105506695187811,0.7449317211481505,0.7543826961517897,0.5587595901739344,0.5764016746569343,0.3345260861142086,0.7675812068884775,0.30502521307343433,0.5197819236422196,0.05346974351475975,-0.35972628738531853,-0.36766048069232804,-0.7893345222900388,-0.7794229449133705,-1.2182912484367139,0.08696961529265612,-0.11644071668730493,-0.7946233102359248,0.766219772499293,0.8034875563661528,1.2486353292452916,0.6775252618493564,0.49249134288422713,0.36060373446503124,1.2102451253889444,1.1070223518014393,1.1761801757473123,-0.22419510292750067,0.20579482820715,0.2994225048502348,0.5829722793981713,0.7475655107833037,0.19395501092854794,0.25558711320908767,-0.08651573224216724,-0.06458875022249,-0.5328749913858459,-0.2776795772857308,-0.6101355081070381,-0.3975041287811656,-1.298405982714656,-1.3848383830251891,-1.5303707056144331,-1.4180086342169127,-1.4033369442047756,-1.4995750274728625,-1.670544568215325,-1.5159844775962146,-1.3567100322206471,-1.2029999807361997,-1.319138749308632,-1.5585397245572175,-1.5155826454619112,-1.1606771126820385,-1.2126396367056902,-1.0178033304450964,-2.5755705586973483,-2.745188365662491,-2.273089290283826,-1.4122473962342137,-0.2919754545771718,0.7706964254534123,0.7658110622726755,0.4253233230327965,0.5822112922238725,0.22228174578226845,0.28343168749720493,0.6522014797417781,0.535027606114097,1.0279282169188788,0.7228881156572919,0.03937275937680895,-0.04233205625892489,-0.3266274304782096,-0.7366491022355173,-0.5061633811428868,-0.23425005025245488,-0.21117898476530833,-0.16150380187379754,0.6470711347450235,0.6671976990547002,0.23582983954088266,0.26037422321750403,0.7593515850996311,0.23974689756226752,0.5185021978969042,-0.068997362176284,0.007140355104085061,-0.28071857120572163,-0.03894754229665148,0.06975173799298351,-0.12000262184921756,-0.07244791832863426,0.2111620164739904,0.0018975186409332934,-0.12268995751391457,-0.14969139975972237,0.20850433058381806,0.32146213064531987,0.5684859128983597,0.22753023952293588,0.5701519282752469,0.20971957960783572,0.4158930616004384,0.4330818341921634,0.246332634054872,0.2094452707172476,0.7956935105166956,0.5624114069480792,0.2861739122569755,0.1576258879088619,-0.25633111931006614,-0.6062634376471332,-1.031668321284782,0.6391625600986237,0.7400419129416786,0.5246163016763652,1.4635190328174912,1.2998560534204586,1.4366154128698065,1.2442116725331873,0.8642697662525234,1.0027903688361968,1.2131176078082615,2.2477700016684943,1.413457661203299,0.7812033131823304,0.560719290284617,0.7601487363352948,0.8546685161747329,1.1193224752099697,0.22954807269247213,0.7740835874842491,0.3985884434030945,0.55229629597717,1.2746087230064973,1.0709296934007217,0.7707470506269951,-0.22538061447609392,0.25429565390380277,0.10863664391050787,0.13059446521541684,-0.7983582664325706,-0.6585537759614031,-0.7496826770864529,-0.7145884407005763,-0.8451876032901433,-0.9921447953469822,-0.7116429523489523,-0.8871360933980406,-1.1425455309429853,-1.4126597401808394,-1.4893659076957078,-1.0821354992932457,-0.6446703003071983,-0.6204384574160566,-0.3539744837422367,-1.6670599371901584,-1.3635746070877448,-0.8820044619491645,-0.26041200654681584,-0.3130130809772119,-0.19436294894887496,0.42335560850790355,0.5774835700127281,0.5879339951409521,0.501509870267616,0.42980818352962513,0.7224946190456736,1.238840795593069,1.123185531662593,0.7922956319633692,0.14931014823406907,-0.022248106171733895,-0.7711506053402934,-0.47107191348460653,-0.2631254390705103,-0.534084217939064,-0.012298255047541173,0.37337371771207584,0.7565670157706423,0.8492578939887996,0.5222702281599709,0.6546453333925157,0.34702549914457015,0.36502256798361055,0.060327521366679626,-0.07017855108064736,-0.14003786446013747,0.24737511717838173,-0.13301268211839426,0.16893914229057333,-0.17873470718702827,0.12947348898156147,0.138613647122786,0.15944593775567556,-0.2609576628881176,0.039221782631322366,0.25548271603484796,0.6132144844258516,0.4138369313079411,0.4558020251817589,0.7074748705923593,0.42458507412595403,0.7107361819796767,0.5271888770990771,0.5004070392922051,1.2765750163346767,-0.0844039550555643,-0.6504418441475974,-0.4616685184429663,-0.7592521133920186,-0.5972017639098384,0.7719041835390335,1.0349648315693023,0.220818848345681,-0.7124459871852313,1.7792788997688809,1.6793534341596321,1.2484438528345454,1.0839946642470508,1.1072035235595918,0.8296587150237158,1.238516151672952,1.201106201931738,0.5424646234984354,0.6610291962014612,0.3303606066490199,1.176085678500352,0.8815049191399753,0.854559524999972,0.5773770578677295,0.7988943189617561,1.0910385498491437,1.1135441472511696,1.0194084372977827,-0.028288843894680227,-0.23977236169930505,0.17348315760325056,-0.2688049680650193,-0.12031269933639399,-0.2876888560188725,-0.08030826477258057,-0.1797021088142141,-1.1117607656644055,-1.2303903464169292,-1.2607642628155669,-1.2453537390467364,-1.1251177332998172,-1.0784866562191908,-0.8528932332442289,-1.412633423593372,-1.412415236553747,-1.4766201826140954,-1.2149633144209075,-0.6658518852987798,-0.7861249759521765,-1.2548394747287392,-0.2131253773010775,-0.5777097664832731,-0.7116999835518061,-0.6301440767100948,-0.1260919351254619,0.27064075056387504,0.16180268421656674,0.5827500521888731,0.5763926584850507,0.67560156245609,0.2772544353759663,1.2647233799778101,0.8197918811154324,0.7094455800704687,-0.1426175269558151,-0.07569565086108065,-0.7543244794200294,-0.6365329477577788,-0.6430087271450107,-0.02808913347972719,0.09386198193432405,0.6446722303637409,0.23919737480385517,0.9441387965795105,0.7646380090562164,0.7268677093260358,0.658925664029876,0.2374384290492204,0.7737404744097556,-0.2856505401865273,-0.28145735564426233,-0.26363281800044996,-0.2060703902055728,-0.27940233814504545,-0.24795318499230876,-0.1549705168856049,0.25331624366920485,0.16137235756583174,0.11933059230736126,0.05419420335034564,1.1304917982812428,0.6056782164545561,0.6647192380352561,0.5072648458978715,0.6935129828214845,0.40194494937386194,0.525523404317119,1.0838113424456224,0.8978106610327301,0.38369024227864945,-0.061366760755860505,0.2591825559103591,-0.23140956334782414,-0.20627752206189953,0.976302610196166,1.2140029665075864,1.2408970796679468,-0.22827643349388627,1.5229406556856526,1.94092653605921,2.02022445713303,1.2560101014261793,1.381862741152704,1.6966732587782687,1.3872221101719726,2.1672565715383736,1.7141773458186966,0.8325328929420881,0.497191592248297,1.340635619941256,1.3109905549111365,1.554865444879507,1.0194438116076818,0.7448422465505931,0.9818838515834871,1.1830271229477456,0.3234964498002678,-0.6706360719371338,-0.7491134104652213,-0.5847265858104833,-0.006440291409173238,-0.20584373063167116,0.2940011255748924,0.08838976200164506,0.1710003778902156,0.08271537815356333,-1.1550089117914673,-0.7383222263712359,-0.8433539105528407,-1.092831364341379,-1.074811603134658,-1.2592110995873778,-0.2533206991017687,-1.2087487552173366,-0.9568032479625808,-1.2831501697120813,-0.9029273341763724,0.23583521547885145,0.12142925213009259,0.6921396154912594,-0.6772809740866672,-0.7673549871249061,-0.6866215298178182,-1.1671197232748387,-0.41984217161219195,0.05270841484470701,0.02998614698279134,-0.006181640201281535,0.6286382636404022,0.4030186615314443,0.6290536171093173,1.200536837802007,1.0842194859238456,1.2536429598028849,0.733072567539828,0.24377731586699647,-0.38161997368332673,-0.3617967216851807,-0.6653571707112942,-0.023477485452109925,0.2876079591683012,0.7011935248790522,0.34037509537890476,1.250703431508311,0.24165983819366826,0.7654628067592881,0.38389038271648135,0.326539187699678,0.2466856294467687,0.2181078658712325,0.2484613998515875,0.0501019931665464,-0.17517333343777736,-0.24450747606564693,-0.220167803518803,0.28421593668323125,0.22244510808302792,-0.2370019741479807,0.03393733197376125,0.45924665761027983,1.2890904265671475,0.7262616723687811,0.6224742187836326,0.6898079526252372,0.7299441713738326,0.3946323429937033,0.7012488169947442,1.4311637086238447,1.3819540486309563,0.40289076387055056,-0.6417577257241012,0.0782000330140804,-0.38448231269703026,1.2033080656082107,0.7967505198038216,1.041229803421508,0.427608097847069,-0.770661855844889,1.2568840356163395,1.9068298078127097,1.6848312061232287,1.516257838918683,1.2684062241886025,1.5999904055371914,1.6352439204778784,2.1623663309092866,1.014879177511682,-0.12081384227903169,1.4785761407416185,1.6992690994435007,1.8506990830150443,1.852517187322833,1.6406969361052077,1.195754493372204,0.8743672715238002,1.2015180323572838,-0.2842523862183066,-0.11203933858078985,0.17934605611280707,0.08409821372608284,-0.015201824464962765,0.44423921322662674,0.3932041834623975,0.3588716369800501,0.4879294457375055,0.22977510997375894,-0.2197601559610982,-0.37665896876965776,0.18587360507487571,0.24956499829427825,0.0556822732061204,-0.11870598189174508,-0.6939343713632966,-0.22468407747552321,-0.747846998703289,-0.6211896644472186,-0.7779718165963283,-0.2127082527393125,-0.14458796780676764,0.39503063594397503,-0.6122799690678309,-0.8509635398015987,-0.78096354690282,-0.8570306033255234,-1.1970313820210339,-0.17666182747774262,0.19146157319355694,-0.03477869666439526,-0.21450644594883428,0.6203324006922029,0.5605577749149746,1.2416416265805161,0.9926051860929257,1.2570298287324726,0.7832846459955223,0.23261553970012283,-0.019548838878071018,-0.6600518690991114,-0.007379136765078953,-0.15944899415352265,0.1324918984432868,0.6970092779476269,0.31262061796596863,1.1144308565603638,0.8449075750209623,0.3276299285127017,0.3803936680727276,0.21168316560740402,0.7507221438774616,0.006655485040842346,-0.18854754353792857,-0.1854359424502699,0.04618717790895799,-0.036721814329567226,-0.1143659824048966,0.23562818949305425,-0.060185994785689895,-0.10335611219438914,0.017155315790794656,1.0453805647569347,0.9252799835269363,0.21848427931634057,0.7156080294427547,0.3396725586272853,0.2350372981105152,0.2729103922369359,0.7541591663707583,1.4889931047251426,0.8387374645297417,0.3583468925071449,0.038876216902337335,0.14949262798301377,-0.34186354238074745,0.9473953783259557,1.1089186565914564,0.2869244056830774,-0.3419087923745008,1.4657658998870582,1.621767640641386,1.7380679477978447,1.5755599710211072,1.5400725482162594,1.693527523721678,1.3798514885486846,1.364883316438278,1.1893037928619754,0.5889276171368796,0.5189041368132332,2.2204297270421645,2.0053309318665438,1.361052710840041,1.2165256574491852,1.1640656020956848,1.0915726714128209,1.288443584558196,2.133318726592883,-0.2839974925465456,0.05139206681543851,-0.18821756339822526,-0.21801519897311472,0.048038263210565146,0.26917922506278635,0.5556014145517081,0.3919649738413733,0.27886924072270236,1.2924342786477097,0.24698170090354865,0.5635605897239345,-0.26413410892322764,-0.2864739726521197,0.008247509146408039,-0.25652241363011985,-0.2762920572203711,-0.282247622551995,-0.35244948339647997,-0.2338228290285087,-0.28782671078474653,-0.5833881998007058,0.2612708529789596,0.7274878719711513,1.288949647292951,-0.5600048578794827,-0.08167611695178723,-0.13306034901911,-0.27194750439747906,-0.037816372793854525,-0.26140046448242327,0.06751577055673597,-0.21852953328154634,0.08575630931284328,0.6960828782962214,0.8724910911132665,0.8220496425781867,0.9296835025177095,0.4516407188100371,0.40112185760263386,0.15557670508050458,-0.31477892305816485,0.09787546194188779,-0.030663521585474363,-0.28976977780716145,0.389669166790941,1.1994909410380445,0.9237624540565954,0.9196053154329159,0.6188741223269945,0.2102089824114189,0.5973624794036907,0.5006244309951005,0.31187608422489455,-0.11386507435233123,-0.10680726541093657,0.26507541577857513,0.04307435930101494,0.016059129025654373,0.18249491566918313,0.13979293870766935,-0.2865786944265453,-0.19330712009286305,0.9526813458518858,0.9878059794726605,0.6080079612571002,0.2589082339729295,0.47980344901004474,0.793396728698113,0.2285664218934813,0.852611662451493,1.778409628912679,0.9613161692392983,0.6032194287720887,0.00837809468751849,0.24592700808924461,1.2117496508592036,0.7114928874152919,1.1142036268548732,0.3900508806002341,-0.43999165514126815,1.314379260760211,1.9255959357380652,1.7444060841937241,1.5484124502062495,1.4971756702768988,1.2938554114861514,1.5347923882572134,1.3308491396801216,0.4980284529205743,0.8725262645757175,1.0940565313915611,0.8686160075378375,1.382654902966093,1.1390615720185442,0.7192149873458249,0.773423695994065,1.000838536553628,0.9250430581298708,-0.08295344800709925,-1.6735165331301172,-1.3128630887610004,-1.261366143824468,-0.055792503928480564,-0.10329702848941658,0.6809353803089684,0.4423121849857832,0.35519420457908,0.9449924924840826,1.185743324628375,0.7536097500331724,0.7783063532200918,0.5029235798056025,-0.2268222993073623,-0.4777758532706624,-0.2831446677151914,-0.3170883935033406,-0.39884047089663444,-0.47215710167952607,-0.25086871687854506,-0.47355957620040057,-0.5548606845712658,0.0931533527836339,1.2412249443411445,1.1988917768626126,-0.6812040327235209,0.06169878136207474,0.2976602800154382,-0.6435705550220949,-0.589991911088797,-0.03961440653375137,-0.27345898808391667,-0.25975460110918647,-0.16834994787646773,0.6840556076346724,0.8450303884133581,0.7176543681694143,0.9089563408797212,1.2123242032400243,0.5512203279177414,-0.1164819714603682,0.07763382043680311,0.10808209813520164,-0.22801172238488632,-0.2829703532353409,0.2608490943966403,1.0085141620813987,0.9442712745909538,1.2778650603509725,0.7035299741779462,0.7950575017565813,0.24556938789722965,0.5908213340675477,0.27886342371297934,0.013066006534651842,0.17956648413233045,0.07655152650153962,0.12888957414483498,0.29973778101707477,-0.03455112789602044,0.04920030376776274,0.06022757181550381,1.0276996034990897,1.1311135754661463,1.055175161640462,0.4922749778659553,0.3850163207779266,0.5514730683615321,0.6237976386672535,0.8464836685057281,1.2515507895670819,1.0876467399803156,0.8903420602005837,0.8488506409760621,-0.1703814016721863,-0.07728385856766862,0.8479949480208853,1.1530798647867102,0.6970237135125132,-0.4103510118085657,1.7199303163749793,1.7259257990729662,1.461237882851919,1.601959429470078,1.225224194920684,1.2476910858708554,1.575253682911438,1.3728621475907,0.2588596063054166,-0.46073762771359583,1.4686798798366367,0.9860606381012831,0.7470759948899399,0.4198084022328674,1.0430328505595288,1.2881571680496804,1.1340442766309737,1.2872933190338989,0.10576493251721875,-1.5261445184919846,-1.2602406085361806,-1.4378050066210135,-1.467006758552328,-1.7210687965479823,-1.332939333195876,0.7419212346396449,0.46538672333596953,1.2987323817231047,0.7104737429543113,0.885617854888138,0.7566239344527752,0.2505727089591758,0.5077115642808933,0.2650298170196439,-0.26280584872826007,-0.5961988023971205,-0.2103037393560181,-0.6093422900288088,-0.35730697490085594,-0.7918322849727801,-0.7160016815287846,-0.219723915238907,-0.11041715253406315,0.790530013669621,0.7407510091909866,0.921890455139956,0.2125436484930563,0.13938848361816425,-0.1812941318059904,-1.7338837204754567,-0.9641976858005726,-0.526129800919505,-0.4250159936826936,-0.736701516765362,0.25594185575454476,0.3568288780929978,1.058559546749012,0.7406256528345767,1.253384094044856,0.5775215883792675,0.7192759917603098,-0.07909425715041762,0.07651864087781413,0.18844565260452972,0.17160950134869735,0.7577660052054527,0.913979303713027,0.8453487301363365,1.254855313696707,0.718885140081128,0.28319354578348427,0.5273852438785602,0.40566863987688806,0.22383052136917142,0.025304449106632043,0.15288814954058472,-0.29622314281129813,0.07998385798100782,-0.2821556109568622,-0.19795542558470508,-0.25790053069073837,0.0031963871238666064,1.1198659280950092,1.2371562605736453,0.4059533839575642,0.6517784437713521,0.44920382424403427,0.4416412689345314,1.1709651307391253,1.2793950805994458,1.6267442849952145,1.1056597177487877,1.760376903076118,1.150253594505898,-0.12709033001967684,1.7698984966500961,1.0397367595050517,1.21392982395482,0.5550635954737606,-0.659061114460769,1.79006054269649,1.4023214985702879,1.7949220643208204,1.4861570705369496,1.709999182361254,1.7577581624837553,1.45585186592032,0.18497817318313747,-0.6406616299657135,-0.29577008126813875,1.744968843466972,1.2122951414077079,0.2635338897935967,0.7188664040329007,0.7665784753210219,1.2062865464561947,1.2211630798553834,0.530690017513402,-1.2781163395852202,-1.6577273235919334,-1.4549668234262438,-1.6245835378678526,-1.7304478335400764,-1.7269621408457336,-1.2108304756063988,-1.5754766655585142,0.8049844884447956,0.874231735990237,1.0635840171216575,1.2651496739143027,0.3176581629178863,0.7569967638808741,-0.20354826710211738,-0.2376320695181211,-0.6640098544547175,-0.4278912250790716,-0.44395090103969626,-0.2992647746916899,-0.7690598027348317,-0.5917822956336449,-0.5267280961883336,-0.031173035784568537,-0.06110877587182473,0.5837087898268605,0.5572247768349345,0.8675422539832207,0.28394244784149225,-0.5118706153590715,-0.6517418811470495,-1.7042222194043903,-0.8326122176920774,-0.5776569824418746,-0.2557715337225648,-0.44776293319828886,-0.1114584317298869,-0.25089005302716305,0.7822562984046475,0.8978625814044405,0.8749778920382902,0.6589890382495742,0.4641186935271835,-0.23354890218527918,-0.13552242514314855,-0.2689677471409971,-0.1546116501754472,1.24105247275641,0.7144894269293616,0.8022288413939462,0.7376201086885394,0.9732994538825013,0.295359918910308,0.4135875244854962,0.4680284982080988,0.5573320883463244,0.1450955874583157,-0.013879796987457838,0.14285048107645792,0.018316859338885216,-0.2556140782796139,-0.25859395138705016,-0.17670098177507643,0.7801926247983673,1.2348266197825704,1.2293254385479273,0.3902951000757795,0.4972940305783339,0.735729393590216,0.8117825062884626,0.7272707523319022,0.8193055932282879,0.9131564657345695,1.1114353976079974,1.1949751484083417,0.8758542216572682,0.4845447454544338,1.749776447828486,1.1381789798864612,0.861092549431506,-0.6481532995052297,-0.3950476175053659,1.4813310083072926,1.2117754261700673,1.225725006498579,1.5797441802846404,1.498913443683993,1.6056854324218652,0.5299482847611638,-0.19665255161437245,-0.012797652278333738,0.6396588272461108,1.3376212107961774,1.1717632496012134,0.47126699693380514,0.6049994053933978,0.25313962377516286,0.9892869535049402,-0.5610650993318944,-1.7382756458251176,-1.6846632737935352,-1.2632949964278821,-1.2553808040219439,-1.4681210156822977,-1.3719305401548039,-1.405292946658283,-1.2316207463930877,-0.8021788914071153,-0.4717533587738381,0.7163096453869949,0.9157515887989685,0.6553491542182597,0.2567993726107236,-0.025251077056319016,0.0643447648350165,0.03041527645212949,-0.07317348962074366,-0.7632878621354169,-0.49340155634672866,-0.7762062648195884,-0.4193056225937468,-0.32290823056349227,0.06583413797078652,0.10827419581005349,-0.2462729112847566,-0.46197935392137235,0.4836985349300562,1.1817412002170244,-0.3941156406756252,-0.42269017454604474,-0.3216662342341122,-1.583534346327303,-0.76198467302516,-0.945426617948246,-0.3240187125797527,-0.1306188527212565,-0.23443940188849488,-0.2528798618394932,0.6808376618076997,0.9573600797875291,1.1407504639361608,0.6276573709323627,1.088117553261981,0.5586594492871684,-0.01865149012313344,-0.17362726938861217,-0.10349020113454566,0.8883093985965513,0.9173063782653026,1.0546890693887185,0.7480171113147571,1.2882455927786192,0.24914343202445827,0.39049504379713995,0.6644738088203606,0.2582277222632948,-0.05227462893087692,0.17965663014029598,-0.28583116742225384,0.15850897088296617,0.23813317721460098,0.2589468084983801,0.08188638642499463,0.7358840220192091,1.0176770275088325,0.7701432343845351,0.3826968318539452,0.6642683925200332,0.3391023414407277,1.2006115073828,0.8375844356917971,1.2730982736058116,1.2335254745912736,1.3724909811406922,1.0267176006080987,0.9048196733785487,2.071873993431717,1.4599042405869147,1.0292857517083875,0.5745376221861909,-0.7795394583502495,1.2538897637850615,1.5754263456210342,0.8617101630719453,1.5576436390043402,1.5715918966360598,1.7442634771122152,0.7970466755494066,0.01484638922365733,0.2535594163779733,0.2821988990852169,0.21522901567191544,0.40386908159203205,0.29407500225194794,0.7406486937200782,0.31107591742129237,0.6662759346573552,-0.7011715112016261,-1.239691340630672,-1.2993947432290904,-1.6781998846387727,-1.4815905059519152,-1.5713137267857067,-1.2384394141421826,-1.2982285491802166,-1.6595187657048158,-1.2592862138358,-1.1544827880181294,-0.6884022233554199,-0.4773493818576619,1.0884672651640388,-0.2928243267053803,0.17598634445646377,0.21505995351568252,-0.06913587236853291,0.2826296036584195,-0.2089762160318962,-0.17687566873147342,-0.2824365277156258,-0.3537815329924614,-0.3780951853758783,-0.26825930850969515,0.11894610243532544,0.11944864180008008,0.011071194492608849,-0.4166024266219046,0.11952077760072655,0.7001508523196183,-0.24539596783638684,-0.3006468373126898,-0.6274187013362076,-0.960696050036969,-0.4230893033414591,-0.5157083544833554,-0.02790543952673985,0.7733594400741561,0.018794205233243932,0.0766719717710691,-0.11773335483058367,0.5333261528866293,1.1461799972605398,0.24202364428002898,1.0394691167598626,0.5415630863541194,0.15932956410377397,0.26795608701409,0.2645860258379613,1.1301272421727453,0.8943766177272465,0.7095777664756531,0.9710795745195903,1.1094688783529874,0.7292225292367325,0.5159167853279932,0.6127478246889405,0.6464918517463832,0.11529636203244076,-0.2935626553278507,0.0678774251050357,-0.01010835899954704,-0.17387260276673758,0.23597056869983263,0.529304554498052,1.1718257878106466,0.8145292132365075,0.7516217185872166,0.42973694341342883,0.4821967159560841,0.8703420393575318,0.9979423030748861,0.7498351671575636,0.7141125266481985,0.8919170804253002,1.7479385192080348,1.158194218761118,2.7389384610390586,2.6653385788268102,2.2775971769442567,1.0738701595447429,-0.37443922560573717,-0.2550490312512257,1.6711360629877574,1.071276861410623,0.9678079232145826,1.7557732346594772,1.377796041801243,1.053616084190406,0.6327349708277483,0.21791874991418858,0.33641317144591854,0.28683675036947,0.7183029001877763,0.38379373874464573,-0.11775728206392477,0.05350138548946104,0.3302354758175463,0.7751058336722378,-0.29706911341467745,-2.1767367062954377,-1.2566824564629973,-1.701947237577109,-1.6387195914518902,-1.3203141237554412,-1.2947816580648968,-1.3912717074376053,-1.7781283063585822,-1.028893912040054,-1.0638677512449672,-1.0452328098115844,-1.2021242524110964,0.7854993870387152,-0.11352434469995876,0.17783621483259626,-0.20724601935022013,-0.06901033697971903,-0.2255008682153128,0.08598002323124398,0.23135321265834885,-0.3935467777470598,0.08091873601388555,-0.18731178916510816,0.048041733670309394,-0.1698869291949543,-0.19924310194147665,-0.18480061245756696,-0.6553854358175775,-0.6145541956065466,0.9271808913702486,-0.6517301274377727,-0.72403737313118,-0.3932413078886947,-0.9522326398120664,-0.5728258837935136,-0.3076280962875506,0.26023294943085573,0.756842337788759,0.6437237944821459,-0.0011930332352756423,-0.22152987327498008,0.40116746755912724,0.3086658255053314,0.7629623088239972,1.2719848036004135,0.41614751890363866,-0.18054502454497834,-0.06991188165851725,0.24976980254335424,1.2778507117947644,1.1679690938729441,1.0763644625524456,0.9872263991367911,0.7106602336983672,0.45002308469591407,0.4297794852879626,0.5807052851044225,0.7761212737298075,0.10163133060132945,0.033844815443416,0.1504786416222137,0.001625190384005215,-0.21878389954464295,0.13922982926675503,0.25557426618371065,1.2092187017905147,1.2480562796280918,1.2687854355862072,0.3004160542864333,0.5529657107600426,0.8839080533609565,0.8864208644422896,0.9407520344302736,0.8841201595224489,1.2568510369288852,0.7575320052672119,0.9153945219662993,2.6854916010906855,2.5870864053948726,1.8485343217827888,0.717157383955993,-0.41446423927786213,-0.5627426070849387,0.7900360276495082,0.9277075386974856,0.7973253082840255,1.7082139377074377,1.1866625096288237,-0.19195423906117415,-0.25293628922755174,-0.11916135260484162,-0.3862804831650105,-0.09268322125536543,-0.049140464149297625,-0.13680171029677557,0.08576070356469234,-0.2808516332751487,-2.058260646964627,-1.4073155798431094,-2.1101440499491644,-1.8778001837442013,-2.1162196396021518,-1.7307072468514781,-1.2992746692992494,-1.5584084498343556,-1.5524396999556105,-1.4013752000518669,-0.8173127372912018,-1.143690218029422,-1.5797999508614555,-1.6651051889734814,-1.043554708801964,-1.2986972448337049,-0.09064672835414767,0.1144449402753378,0.2458160165894041,-0.08155131200153543,-0.21309881933727093,0.19218890652657472,0.6070976987390515,0.43047750831728204,0.17635066644792552,0.23796195749298832,-0.07025075198691266,-0.1738597371664523,0.16513857142161847,0.2992985520767819,-0.5979140445591589,-0.3319771697105889,0.755881129757819,-0.5913302575466259,0.2974679440650443,-0.9388404673017856,-0.8790383929104943,-0.7297063680900948,0.16396775867203583,0.2693240717826839,0.24708620062027764,0.44626236275812825,0.4394228534213849,-0.2810654620278734,0.382748923764632,0.4949403681498048,1.5813833407848126,1.124914079759748,0.20191338708635287,0.6229623323105309,0.12354590894634465,0.7504238305882989,1.1362064999854442,0.9037392205459582,1.1982404511501603,1.2191736966319395,0.80991622133674,0.7887737059018805,0.7463146379540757,0.6955758635070882,0.5575058200080764,-0.0942741315136951,-0.2448486437695999,0.1896806405906568,-0.14741416989299086,-0.10126549454975042,0.41378545581368464,0.43256843745035434,1.2705561252452686,1.2708912651304853,0.9579052996662076,0.3050985831637561,0.9082272602358908,1.2368460345231556,0.7873580166948966,0.9612711680662785,0.7385993017627407,1.791396440007151,0.808265811796054,2.7743329873532216,2.5430134263089386,2.4021700519356863,2.1450833661470146,1.7247553256124846,-0.22513654773877434,1.2521671942099104,0.8473468208272381,0.8229014000639483,1.1526166054520983,1.16672469591073,0.4090119150670932,-0.12320803402547664,-0.4213229630640345,0.2867458866879946,-0.6645573580635427,0.2764402779904853,-0.07194845598297461,-0.41982890035639686,-0.419184013918773,-0.32546731544128193,-1.790527794885091,-0.9924962833218227,-2.7187588922003583,-2.660583974500335,-2.0686064233318113,-2.272393537491526,-1.706368066774116,-1.2489803711377863,-1.5661599623480753,-0.7046808149090071,-1.5137038775112446,-1.6645217841730942,-1.704579204126678,-1.3363901974518568,-1.7813904822249607,-1.7618220933375563,-0.22904498298098996,-0.15749345785561353,0.2426877253613524,0.16460059512990333,0.6244969544982837,0.46904051357885235,0.6163467499721784,0.23766721435433236,0.0010845517044564268,-0.05969066873477935,0.018154934399169154,0.029829127402797195,-0.08393917032509646,-0.09476934475226906,-0.7323158997477963,-0.5306635970346787,-0.24938803316955926,-0.03422512390922172,-0.7398750670196921,-0.889200679347582,-0.7343253173680524,-0.255502792922232,-0.2523891411657675,-0.1701788810870133,0.3008703016379316,0.34194823232845395,0.7388403377945101,0.6692942429233981,0.4899644139459597,0.23903777389825254,0.8021109999635636,0.907660154534994,0.4651551014260057,0.6527352029197422,-0.03194584185163318,0.44776214512753365,1.149641488172656,1.0436193897245691,1.275830782471938,1.1147884495094695,0.9297181239234625,0.49433636798601344,0.46232214732442056,0.5985524931341867,0.28752605041116736,-0.15747515905452003,-0.17566686814404214,-0.023856605197483616,-0.1405423150840583,0.25458203775784943,0.6585950435801879,0.3054681073285682,0.8925818734317716,0.9183872561830366,0.33596090367519515,0.5181611926942158,0.8496391899133313,1.0458726528921516,0.9343661888618588,0.4898971948395666,0.9632599167837002,1.239998181243593,1.038717504342368,2.469222112919346,2.740233803953657,2.5995603065259467,1.7837170189954135,-0.051314171072755155,-0.4576514345507694,1.1431383564403754,1.032899949245489,0.5485482445952408,0.7410646946803783,0.2524440223332003,0.686871918393936,-0.5635415502203796,-0.33798002494410406,0.27374441616021783,0.29361618515082943,0.15869098592061026,-0.6509506460034094,-0.2419313618314065,-0.22100118514029288,-2.4064801159410667,-2.134429377052229,-0.7146108081963982,-2.9670499425090386,-3.028513525765418,-2.749731939533626,-2.3094296014779276,-2.2080279032398833,-1.5662121315329842,-1.5142200778909882,-2.143585990855109,-2.048302413463894,-1.9692615525499904,-1.7528331476131076,-2.1759229911684517,-2.1666349962205924,-2.5576615987029228,-0.4226083998017889,-0.506809611393604,-0.3662966445773024,-0.05940330251006776,0.040704367760211135,0.2867757835335969,0.16965999400281562,-0.2602579496436752,-0.47088699350566743,-0.4889603785705843,-0.7410569856029485,-0.6734900957679391,-0.7973737111984407,-0.7903313023686773,-0.8765308599269683,-0.4801944096604114,-0.7192697911234542,-1.7692769445425616,-0.64832896746299,-0.9529128658414541,-0.8658819369238682,0.24471286086698996,-0.07121428079796188,0.20394547254035023,0.3752143372848892,0.24022473458266225,0.43447901603176176,0.44572168233606735,0.5228444472107152,0.7422993915582454,0.938160532386662,1.1139484069453833,0.5651784878589274,0.4645461576682255,0.3969761190301828,0.22606693649503845,1.2794551842437414,0.8367042380752565,0.9487204304330156,0.9203476945796789,1.0586755520901963,0.5425086020931571,0.23710653921479385,0.6442741007931236,0.22672179152443828,0.14970288534237985,0.07793942111655905,0.19906438284854505,0.14657104923043723,-0.08562904417477965,0.4266524210453926,0.32053904775833575,0.9314653533777598,1.1470740271984172,0.7198871379234713,1.2052880314722914,0.8127690239860387,1.0828559590931848,1.004642014969667,0.38272112142480386,0.7701310982592302,1.6986405028555926,2.213319406428077,2.615259340478651,2.4207341373002076,2.2260682028095684,2.417736008533276,0.7486925417232126,-0.027997272384995164,0.7794949352703748,0.5081759337155702,0.5783584844249718,0.9273748823623267,0.6719888950830013,0.8352975299155461,-0.26816668585669556,0.7127443742701773,-0.09703670690225841,0.5151741533017498,-0.0752682524703645,-0.5904624340161058,-0.21638085855296363,-1.7127315267110492,-1.9300637518231119,-1.1295948133009075,-3.0248970776765454,-2.9819982484514074,-3.586550045238155,-3.448775652403849,-3.217593702287552,-3.3221047652148057,-3.741557228342001,-2.6230271628470248,-2.9631868275478173,-3.1802683351308154,-2.3137761984480463,-2.7299879158634024,-2.56051344596175,-2.850512926593296,-2.2073355809184885,-0.6833170808422755,-0.4470373613134231,-0.6485956021251038,-0.2317961114179803,-0.44597736728040394,0.2880212275778107,-0.2781182246125775,-0.5050613959172301,-0.6232131540984371,-0.38176332578533545,-0.6430008124873354,-0.26508104222526185,-0.2951500813589538,-0.7045939587045662,-1.4240704153569217,-0.7053931970526031,-0.9339771920856079,-1.6012959331175343,-1.0473912975278632,-1.6044139320633133,-1.249508369807601,-0.1386928804448938,-0.12666872224428438,0.23699182799907148,0.2363676527780899,0.2670991393427763,0.6669024106327011,0.5228896371068532,0.19747192413530024,0.7954614966872451,0.8787956731484745,0.7607147327844292,0.7919108624948739,0.5458263967843227,0.560559484784096,0.3206782500680382,0.8972959275892033,0.7042565870569077,0.9273248105318925,0.7244099916734212,0.729173379082982,0.6590295867328533,0.3700396438527505,0.6792170723335418,0.34045010183675695,-0.09519305499956329,-0.2894015975175646,0.2592648081873837,0.29684014899866334,0.6496642365736797,0.335717306454568,0.6257022048218467,1.053120477572773,0.8722652971188969,0.6806666665013859,1.280225070932082,0.7535301809177947,0.7936998489365836,0.9643853636791341,0.7426060154397001,1.144190111587222,1.3329563562964604,2.276557587157072,2.6770636911347983,2.5231369771922836,2.635443900785735,2.3013559655765525,0.675181675783199,1.760135869539896,1.086880433929399,0.3208703139309713,0.671244266511144,0.7295280771586634,0.9774652507000514,0.28420739445350973,0.14053515898251057,0.6256645091411577,-0.2665117978678071,0.7811181281175372,0.10040969795582344,0.09372889851885069,0.17890768689062675,-1.7365295690240319,-2.289037688662224,-1.7024034709928433,-3.757577044431875,-3.4848463475912466,-3.5136942912982043,-3.284733260554213,-3.456085286113302,-3.601479331261829,-3.6166758395110365,-3.679150736784674,-3.368697301929299,-3.7930683378828407,-4.094272693376013,-4.284031662709163,-3.5865145416923245,-3.28587263638096,-3.0717733469332864,-1.4356746103690958,-1.1983634602342603,-1.227400492455911,-1.0145428443976499,-0.49620679132477985,-0.6785857823880459,-0.2037570740438075,-0.6506804266619839,-0.6121453354235395,-0.7124078303208923,-0.5085271332935133,-0.7038429507870263,-1.285892545054909,-1.6890581245387901,-1.69222969878501,-0.8698413581168485,-1.1671403429861675,-1.5803457625334714,-0.8100640747369636,-1.63212620306656,-0.8584883570320505,-0.33772315079632476,-0.25217700590777326,0.020959828545199732,0.7218396961462599,0.4026240826049352,0.21625115076869905,0.7591180378770765,-0.17812894407130164,1.2502657807564848,0.9960175028419749,1.3517886278091942,0.425617363714092,0.2828078757501854,1.0602287426529693,0.5028455186120364,0.812822520170553,1.269131727076388,0.7520656703294075,0.8521727066656669,0.7495550107202225,0.2919385039115402,0.3989376117473099,0.2544751926035578,0.4527593009253069,0.12524748712416472,-0.018731070682938167,0.006294916532776029,0.07156851705455441,0.2114385197256879,0.6462120156848137,0.7962140972417111,0.8074415490180412,1.2365353495424696,1.2209847038963015,0.8950613555331544,1.2007431278481457,0.8880916480554106,1.181771322453395,1.1677728428576217,1.2027310033496006,1.0007083584522103,2.2305077569223686,2.5637731376535657,2.4716448233951174,2.4284665253934286,1.3516305199399476,1.1154036211667135,1.9155482291631625,0.8518234489637235,0.3849045754863871,-0.09124271817587593,1.1254924512915294,1.278254373222963,0.796437936262872,0.39765644276285306,0.3723672549178232,-0.028344338141746972,0.45117258912544245,0.13290800763311916,0.20654511780006457,-1.7034099375494947,-2.4572136373490485,-1.2424398776565095,-1.7337466199282718,-3.2761614780278085,-3.346733463890641,-3.6717695838788647,-4.183729617031386,-4.298951146926886,-4.23049579812913,-3.743540625072157,-3.7411831293302873,-3.7751786806817202,-4.146523825550971,-3.8469498366524846,-4.277542862584741,-4.156623056356479,-3.768475806403542,-3.761119587896445,-2.2007198354456357,-2.7326089602105728,-2.0959866973166137,-2.0184278343131936,-2.1975784527300823,-1.9430540707353194,-1.7474425330075647,-1.7719057901220818,-0.8418849322293176,-1.1703892946872576,-0.935369818006726,-0.9499351579190924,-1.1339172400320585,-1.4773546205377066,-1.5775775979523021,-0.7244794033220343,-1.0008561731901016,-1.5397680119215302,-1.8152709816167165,-0.83908309486451,-1.2480197827339699,-0.3649707733376145,-0.7560838171128963,-0.1773159296804081,0.029666709797642743,-0.038323413765742775,0.5207030359254945,0.7883280356773306,0.10564161802458827,1.0205080893383456,1.059793143436356,1.3104204113709736,0.774153894857682,0.48450195561974185,0.7781148439676867,0.840969852750877,1.1011272701423918,1.0985248497792346,0.812220061980602,1.2476130549708642,0.9910930439275614,0.6105927869834362,0.24522188315427995,0.7088888928111958,0.22394531379278154,0.18610261281190632,-0.08719635318744526,0.12839728390608302,0.6340299367458327,0.4534139028383833,0.25990931299419406,0.7817775016988572,0.8189422396466118,1.2529806601827491,0.8301718186882964,1.1735676828178876,1.0308685379159324,0.8329378246190607,0.4730507198005455,1.076580995856116,1.3735208714792408,2.701299518144366,2.6101348060442215,2.617383965396929,2.758474393923019,2.5969726531798396,1.4043223903225832,2.2474763809332465,1.8039297653075974,0.8518990377472362,-0.07931526675229716,0.004578181843428286,1.0782706137913425,0.2710093197033523,0.40308870642307715,0.6983775098734508,0.4225968024643565,-0.29406054965213,-0.4712623252897379,-0.215452423049022,-1.706264314668191,-1.7391124067493022,-1.7305728999220853,-1.6458490590120207,-3.4632110903461983,-4.683878731731019,-3.7229958094550226,1.0208815557856983,1.225438424655865,1.021729532305967,0.924597970045602,1.2770496698026137,-3.832766311225264,-4.153537006934977,-4.977243248958905,-5.261118937459962,-4.885774433904632,-4.993818392640509,-5.398939972090229,-5.79585636915384,-4.150974994904486,-3.792733056589258,-3.9091578539775425,-3.5326170885788963,-3.5630035380501557,-3.713105926822616,-4.193676918005787,-3.3613079285103455,-2.0378812330808187,-2.211457781146852,-1.1370367721872054,-0.7716306802282555,-1.0684823912971888,-1.5101375107238346,-0.5309954504563978,-0.8956333412061221,-0.7716301264631211,-1.9751332917937767,-1.60736065678352,-1.0905090684629726,-1.195134414006231,-0.6236660543208679,-0.25769900058681605,-0.10462574986563355,-0.021296112939207967,-0.11873013426987145,0.27359038414995074,-0.49096566004340647,0.22191944098248584,1.2549958725618728,1.5342756799379411,1.590812714283572,0.5890830675520042,0.47355416679036477,1.051872153370193,1.1120800949453904,1.0448229790449044,1.0079365312169142,0.8273276912557341,1.0929679445759384,1.2741334482269668,0.4833032253391216,0.2818569910650971,0.7195050141781296,0.6072564832487901,0.13473499671390865,0.1447126622328912,-0.20059009678853607,0.2736816788019836,0.527980357105247,0.6809644472912938,1.0666946545332898,0.7337291268123716,0.9563010213777288,1.009313479283692,1.0233667900853853,1.024333322153904,1.1907673471579963,0.7293870732707306,1.2028177666100992,1.4890200588924376,2.791760848923077,2.4158558027474957,2.726143425730955,2.3132836733538205,2.393318212681239,1.3603487598525588,2.299462049219702,2.385602364281539,1.7740980555336434,0.3320675025528447,0.6416163044367518,1.265033325496895,0.7483494264699875,0.5292133746423733,0.7094178489002245,0.044061955030111344,0.03409305465944601,-0.5286446179865782,-0.6796337743962666,-1.7380881773847152,-2.0996732088879715,-1.9970587802499553,-2.1609215305835425,-3.8761554676793732,0.870148881272415,1.1981472367712453,0.9041972727664636,1.174889489555681,0.8981583680170262,1.122013914431413,0.12652683262649722,-0.07874211978728773,-0.2482643372738318,-5.599408093688052,-5.226738211029112,-5.250319722056061,-5.2463264027139624,-5.602176047062741,-5.201511458579287,-4.241175744829291,-4.073029933521393,-3.9333604171047027,-4.135269041283193,-3.7655164068080307,-4.09714596584131,-3.8776033621065658,-3.7258539137515525,-3.8049038711962853,-3.707101368792029,-2.9614977554552366,-1.6487498069342015,-0.8631720483715544,-1.0609838041266668,-0.64088988700736,-0.8162916487633989,-0.9238251083499354,-2.1355648403655616,-1.8880950008261754,-1.7791812743632711,-1.1919012878302173,-0.5986828005571798,-0.2371052828195317,0.040695920374966166,0.17486670052109055,0.287224647766972,-0.3944273509713081,-0.6023919333209411,-0.20398089687721987,0.6790833282638484,1.394141391182648,0.7496879967556551,0.7462408554632196,0.45225657881460657,0.8663862061592911,1.2972147714767432,0.7522206408208976,1.2398663651426551,1.1366318910450668,0.7391644215203639,0.8330981186266697,0.20972528553009523,0.5262719044581645,0.6561366297921474,0.5093360750880678,0.27886138324262905,-0.08914130861816108,-0.24349732051810613,0.2990585151176151,0.5878924555644389,0.79655779189304,0.883213192170517,1.0809300473354169,1.337849796140838,1.147873054980871,0.8055338854204982,0.7023364954451348,1.0546419426774065,0.6752907537097986,0.9817782984038905,3.161093578007658,2.358338379594277,2.58312188207863,2.6328384646200904,2.2900543623738283,2.4705780216592377,1.4762864205054318,2.5857549881619444,2.331622999545338,1.3284913062375163,0.7391266430623367,0.912463532976548,0.2865464464764702,0.15835192598050174,0.5908026187005515,0.5968949650813138,0.19506761044940824,0.22039551559598647,-0.48388167289333817,-2.0820716608117635,-1.8553015896152596,-2.733358980017563,-1.7751661298912018,-1.9332934946283724,0.9046521728155366,1.2760963854141696,1.164037423407883,1.036324316070951,0.28246598449274396,0.01299512007399617,0.2914887074342736,0.23954097923261064,-0.4412638773964366,-0.41151236137946423,-0.3626417499964676,-5.313006271261855,-5.752430817178767,-5.567045875385785,-5.3663190027277174,-5.330807966823228,-3.997709182901868,-4.224850553781249,-4.2324968289157585,-4.171893546042916,-3.8230099046934463,-4.21373066795228,-4.038613540325741,-3.775344997856779,-4.043139014272005,-3.8362033986592796,-3.71965950441312,-3.5469873989920306,-2.469043533735155,-2.0832401230725965,-0.3085104462722188,-0.23319240916866013,-0.6502328069373728,-1.8104159507451076,-2.29296818337758,-2.024704385943525,-0.9509812437119232,-0.5701544632510802,-0.016265733552853323,0.05397788624297517,0.04821213333082919,-0.6747314538143239,-0.6115341226931883,-0.793376702875765,-0.5436565459061908,0.8324618105870133,0.7758471102069742,1.167851844226099,0.6508081069958256,0.5548654483661111,1.2737743359057712,1.6174869645931218,1.7572260381596503,1.0139293088847952,1.0094635431499563,0.7183793562050002,0.9168570188845457,0.4641048315895532,0.5904524237129732,0.35068640143949215,0.7361763006355684,0.20982016242446516,-0.19826623774301771,-0.1624458945271774,0.48472331109654276,0.5009311745915364,0.3083386307086058,0.9932732219318466,1.0103075391122909,0.7862626933144775,1.2175338377665186,0.7436746537877411,0.8291983586069216,0.74658004372867,1.1428517766853679,1.2204675275558998,2.8063391669852935,2.2156228990940674,2.499160885526931,2.4256584714973424,2.794193760231207,1.489755742546607,0.9372609057809744,2.2263586820043066,2.405429188618609,1.7978932658763775,1.6645787868825739,1.13913294146399,0.6848403002282364,0.2948544167830369,0.31549871033250443,0.3808631067059096,-0.11566213142407133,0.44315042911080893,-0.48865077407718305,-1.9499549535477132,-2.2118921337523068,-2.6561605460268205,-1.245488178596442,1.1152855905620083,0.861844713427304,0.7420651839515067,1.3414233261695414,-5.182053175577892,-2.8856032315289757,-3.2584593250672347,-3.6421403350470474,-3.6195850437463872,-3.7147105333123998,-3.5136746831140933,-3.253060695039542,-3.257500520719824,-3.4389400783506936,-3.473701694348958,-3.3661073691907837,-3.375771627826416,-2.1429909008945502,-2.2262909716306707,-2.026638472496669,-2.1306684155201987,-1.9087042853896459,-4.253305030672031,-4.2084783384363895,-4.002273991358427,-3.712057378102144,-4.280926164053926,-3.771649879705599,-3.7803861227636544,-3.4843443797110853,-2.2220223328798427,-1.806872179455843,-1.3923998926537327,0.28465193705395686,-1.940619411187237,-1.7483391611069816,-2.2616603337885746,-1.402092695890524,-0.7566621040063173,-0.7111953195281502,-0.4118030735579864,-0.21301261348965483,-0.6243958413840585,-0.45339535675432463,-0.5764100891298436,0.11407695901710269,1.0064673013182963,1.2982381679079196,0.39239450839882517,0.7077721685800824,0.7122718750835901,1.0258103657522657,1.6745094973328527,1.5530829078925656,1.100698635209647,0.7797115410645395,1.1240026880366536,0.31463243831210963,0.43815619096619246,0.5697770441012084,0.4345199544934106,0.400948429609828,-0.2541277074822336,0.2746938729047375,0.11147949356388626,0.5311922915064619,0.6367134520442473,0.3420332702364895,0.8656547130209864,0.8952972289374974,1.0447683949689386,1.1328363279543694,1.082583823204469,1.2315951566924692,0.9142633035393918,0.753910947982267,1.2823876645673957,3.0375248549949956,2.6756195760978763,2.463957345425899,2.7117749482855613,2.756012436001816,1.640875664581157,1.2222150489512111,2.7015896587178654,2.1571173521970466,1.75147333096253,1.4823473677620007,0.7613332893021569,0.8630516401869535,0.1787468846815714,0.4996979447226224,0.5675019158010937,0.19577280448349277,0.21008655736987358,-0.24414755698650525,-2.011090654637826,-1.7615048024837474,-2.0033280223404684,-1.487729922380089,0.9088236786495825,0.7550216050897842,-2.4399932019469888,-2.8239170356385674,-3.447628991430859,-3.7801579237742438,-3.3637882608366603,-3.4343725551618647,-3.3570955797389415,-3.3721417721944844,-3.6699290105029685,-4.1922003265334915,-4.130375648233703,-4.263423580053993,-4.043205618171519,-4.154612866510328,-3.7154266595059404,-2.568371249629089,-2.271797765729392,-2.48198785665857,-2.7193054007519586,-2.7892759110810807,-2.629858939791971,-2.2629993919927776,-2.3654212654885045,-2.4051088128131632,-4.734829541989842,-4.362528416956907,-4.228533817065081,-3.7651031725209663,-3.176823296194005,-2.0865677204956867,-1.3484659420625613,-1.7164279661723805,-3.203102460593262,-2.1977487470848223,-2.114328386501733,-1.4001111885462603,-1.231970026169361,-0.2938145606656546,-0.7911339197646303,-0.24896710538208766,-0.5196999581639523,-0.4626866047992001,-0.2701434405124066,0.08681875346963819,0.8966300233237886,0.9396626399868068,0.5083850654447365,0.03202660618411657,0.31254264663149756,1.0953363715710238,1.612426773268417,1.3914762024495335,0.8352456174772973,0.8669741047226869,0.9685261760173571,0.5625189793302716,0.7102764744878063,0.48972479492257265,0.2757668621306355,0.22567891959904596,0.07202687527344664,0.2757530724371195,0.42127482000577643,0.3633676956816281,0.6680508275792871,0.38674431825044786,1.1253593139488838,0.8012246241464979,0.8072261120985114,1.1098926537924776,1.2689373334560372,0.9709408893545683,0.8275380885127647,1.085204759705033,2.9628064071945817,2.851803558901078,2.4888447662728876,2.651429341343041,2.5675119987046795,2.4520549930207043,0.9234766237752727,3.188034002364599,2.5589066090778623,1.7527811794395687,1.8188664010901485,1.3031744264666902,1.049886694917574,1.2069757255753326,1.502131519634652,0.8811749996384024,0.7835176616872237,0.0986199705844708,-0.5803028302230029,-2.136135361454323,-2.1327860566627894,-2.1869978763579514,-1.82371723157982,-1.6400179090187388,-1.7683064631130119,-3.0430786519227757,-2.24341542360336,-2.2376827883414006,-2.8946719636035247,-3.6309651820881346,-3.6016580327472685,-3.4644958083708954,-3.2890818827366717,-3.9317088272498952,-3.9612715604676634,-4.149482204686241,-4.271984372858304,-3.942758882522062,-3.775825598395923,-3.9253272406517397,-3.880838898565559,-2.7709219839265242,-2.729498985222828,-2.3785665537136844,-2.4578692029781903,-2.3955848533482547,-2.6731159178531647,-2.2075314712519463,-2.5132903320500466,-2.780106409206602,-2.49443874793079,-2.3958282840479024,-2.4256318072994105,-3.1929948006472264,-2.5522934299864124,-2.3213506079701407,-2.0804930947358216,-1.2131731923842286,-2.774201396959371,-3.6640117793711884,-1.6687132441421988,-1.3841773723942712,-0.7442038494248482,-0.7472713978367957,-0.2732650678939006,-0.7245346660895351,-0.06725622498615424,-0.2877106525203199,0.032996028029868896,-0.19791400712643614,0.38373467363241287,0.2399673073284756,0.09866587820699257,-0.5687305080546889,-0.7094199469120678,0.38508122274532086,1.166981006998307,1.055521305968956,1.1594718155961294,1.2491361422361829,1.1769312306954611,0.4275611341419558,0.5480098420945243,0.3042526613241812,0.5957301186901128,0.7469544479592196,-0.06775809752717699,0.04292014318481663,0.364940670625138,0.6769049255525521,0.6932823685898566,0.3493947614050845,0.7567190619111895,1.5446805743367933,0.9485179576571381,0.8237435200712879,1.158039876166933,0.7420744108929846,1.1497094937108758,0.7044169679128802,2.8672222834145433,3.0064877105409114,2.560203172693753,2.602999665010244,2.765842945275014,2.4648674371512347,0.7192484282934157,3.258265156025665,2.1026255586570253,1.7122084321832882,1.8670260844052793,1.2280436018190324,1.2650223021701819,1.010928863183202,0.6838125515284106,1.7345968496599493,1.2542746238495908,0.13050508032195662,-0.2948849345527105,-2.2252854943861617,-2.171325922429106,-1.7677305133703523,-1.8301115192000854,-3.2391609765842575,-2.9673185805404865,-2.3904683664217976,-2.3101911579131356,-2.5447009034454653,-2.2650512687342,-3.243033630973881,-3.5598011765584374,-3.3416560113821876,-4.0868180277691435,-3.9623053047522596,-4.297118106152533,-4.056951668501388,-4.100331625792714,-3.997483107941606,-3.9314540897184074,-3.817129147936397,-4.19119447544249,-2.670572196881386,-2.359315086904797,-2.692266846787146,-2.501891284039096,-2.7352350029933996,-2.334640266898747,-2.2140295157656515,-2.2677081198697913,-2.233660156074038,-2.454640662140383,-1.9881469316873326,-1.9685784144595306,-1.2071058616694557,-1.0721946384837837,-2.697008078531805,-2.748366091557958,-2.062958930944773,-3.3474421241688437,-3.215377257037784,-2.6953243197482326,-1.2156408099030118,0.010541263359761355,-0.2429035127544905,0.12350951374589902,-0.2012492518501554,-0.2925751722249865,-0.1391534022080475,0.11616067607578984,-0.2925006894088552,0.7474887387297482,-0.04098175647901936,0.161326022019827,-0.684949926868511,-0.28651109817443937,0.1708500721199247,0.7881507787209773,0.8870151735927287,0.7108795429627184,0.4040055099557174,1.2268814394935161,0.5820298969434645,0.2372881630027991,0.620185431366707,0.6360306281543905,0.6681483846948131,0.18399594068733943,-0.0059830102224365245,0.33975156778323085,0.5308486077887822,0.6483559158927105,0.7419856667572327,0.888817074425789,1.7287947418677854,1.1273456776769089,1.235012887502165,0.8053897496974755,1.0829943004598883,1.053123838791333,0.7773825226667499,3.277939385516805,2.997823237767503,2.5957286212666215,2.4480913693265123,2.67656038096393,2.633616145202212,1.1601398738154085,2.8643859552538675,1.8659205032684656,2.0283459103508186,2.2716728847190284,1.5189763761809014,0.3880743625979395,0.5100667496479971,0.39050661471837866,1.1052936179381865,1.0571242855815135,0.21970330985015885,-1.1434804565283585,-2.368267706805599,-2.997771658172474,-2.821271255838499,-2.893475111827965,-2.9879941541202184,-2.7138032325249455,-2.471650127198088,-2.473835802867092,-2.507736171546597,-2.4442183940658735,-2.632060694085358,-2.744724566720994,-3.25831191791471,-3.3941800128234387,-3.9800141267264166,-4.1854207456304575,-4.200701005132967,-3.8983870724479437,-3.9164207838443645,-3.8185654564934555,-4.035213819641749,-4.207697348219351,-2.595458101984945,-2.653284718448198,-2.336271404838886,-2.6174070324747536,-2.6690803230068814,-2.42085474544246,-2.655614566563767,-2.653134562736164,-2.6871154642389516,-1.8140743667701065,-2.013516651110791,-1.7360635986112207,-1.6895667810781996,-1.354570517037347,-0.2592924499054259,-0.581906364756053,-2.3137642534088636,-3.738753979047025,-3.627820807850215,-2.580083389995157,-2.497778231189751,-0.735072748013283,0.19873990850749523,-0.2979137555858742,-0.05501055214037476,-0.04232997738329192,0.24591943703842678,0.00954537421169177,-0.1671769860198119,0.753756808019604,0.16074908239899505,-0.2681278362990729,-0.38164466746888726,0.18762183932249338,-0.13580295020190902,1.2806374107705376,0.7293646625817263,0.8911010027026781,0.5226694462726346,0.1034160700338509,0.6145940244221262,0.46848393188728016,0.2838381205701058,0.4900304914364563,0.4039958043355213,-0.1579433395992817,-0.16761536637373803,0.4371085201766088,0.2697159948579141,0.2841825502443131,0.6917904569308437,1.0845486166444953,1.7927841092958856,0.9296980307351939,0.7834759049490093,0.9190201840167928,1.1967181212289977,0.821407919372058,1.2514844211094107,3.1659932698094844,2.771911826130835,2.381846875115386,2.739541342774821,2.7820471044515855,1.4619952042596798,0.755496728475094,3.1974350218695116,1.7717425725561955,2.197910841968059,1.5830543097604792,1.1990820389062948,1.0323736890144812,0.5570314709436937,0.6146285042427642,1.221004650452235,0.497484807755884,-0.05476249828393209,-1.9502916207133487,-1.8568210898416129,-2.201283978789469,-3.2944643795500035,-2.721752630834784,-2.9924770715586666,-2.329431623976662,-2.7273543120210935,-2.3785549832757367,-2.670195274156524,-2.2338903576442934,-2.63670765070285,-2.9477903269966435,-3.3985812803752977,-3.798625189741351,-3.327928968502913,-3.382176245453349,-3.74509776162098,-3.750731322300056,-3.8961984633978983,-3.9349516487250558,-4.0107470535991085,-3.831255854108839,-2.220494559082376,-2.379606686939816,-2.3914997876632054,-2.5928940341019158,-2.7510098538523855,-2.2543193357784803,-2.2478769951539057,-2.0934990627629038,-1.9299249519306425,-2.289986508603773,-2.008739931722735,-1.3194948644342963,-1.206984665543223,-1.4157791678103924,-1.3284304194568035,-0.6220034506610899,-0.4184993177605447,-2.2238290229200324,-2.850425726708209,-2.6895038322182443,-2.0738322778012535,-2.1555205977526763,-0.7931273671230485,-0.1386464250524837,-0.05986496500731986,0.10037766932373804,-0.18774340955595692,0.2388083966889034,0.1994570103770854,0.7684992618233843,-0.012673375845504875,0.20043678515107027,-0.3141346900612001,-0.09346881429508613,-0.18260932119401896,0.4597485555872032,0.8341494606740552,0.7143385400840412,0.518380479037105,-0.09814811874999219,0.05889238964097693,0.5519790898283283,0.5747541355641117,0.6176366615971494,0.667726176865207,0.25268840066353265,0.11140127344877748,0.6047763044638151,0.6686502768033045,0.7557693380065591,0.30037069321437493,0.36435149961769175,0.8875971487091094,0.7038892812304807,0.8649995631817489,1.0942830040926688,0.7872772785032142,0.8024991978158149,1.0885359765738432,3.2646157618435945,2.7908450927279596,2.285518761635286,2.716787781963668,2.60812237285094,1.651149537266722,1.2620217446961468,2.4829328064824034,2.0773967656702172,1.6175424399545686,0.8629752639676282,1.2987398649149682,0.7432763808979672,1.2665570816213032,0.22695326143045258,0.7935439967981208,-0.21263994913963025,0.22230655154134782,-1.7939579839451254,-2.150478919880124,-2.2344371591159224,-2.018645976048217,-1.4402143493929915,-2.1699555750121506,-2.204247595144829,-2.3839782615753475,-2.347436125951344,-2.2000902251994523,-2.358983003319507,-2.4425996643591796,-2.780333592203485,-3.03191669816748,-3.6270021034152524,-3.288579996972236,-3.3179776166594444,-3.583735182551493,-3.7013422917704686,-3.9587156601942652,-4.294617362560285,-3.9945161293726352,-4.4868923648607275,-2.9777148087704592,-2.98752282598659,-2.7969649419827167,-3.2047321213381412,-3.2410852501680774,-2.4827898945240325,-2.7593789416011534,-2.483235759713918,-2.583809176187988,-2.5280127020866723,-2.5449405506116443,-2.122675777003082,-2.2413281266249996,-2.143240828739674,-1.8210720830392866,-1.3009787783843614,-1.2739562456596112,-2.5565149508180633,-1.8156731867170162,-2.6547591985922643,-1.779345094374374,-1.9682541300532543,-1.3786186783412973,-0.04248659658680354,-0.03882424641075033,0.23652254818584573,0.08711601607965502,0.000035316243219840615,0.03794780068885184,0.21292353282402832,0.04147596471170045,-0.10222758641653118,-0.4502789032918977,-0.2469392649926334,-0.033216980953600705,0.7864543162143014,0.9411906666161461,1.163680435258036,0.3234955257438624,0.23303118256082905,0.26966286734335604,0.2767863679158537,0.36782769632117585,0.4616928959666359,0.5639733815934179,-0.0990851189939699,0.058737111833490896,0.5456550150544351,0.6596256832866283,0.5524729314287689,0.7892597670872545,1.1194876819702861,0.940793932743945,0.9902737154507939,0.7341205652566551,0.7163940514428583,1.0929914489011066,0.8451230725425148,2.8764830458092585,3.22237133913062,3.2172308410555153,2.3773035494367845,2.5857773448052623,2.2646127669181966,0.9830744586354094,0.2603051052220954,1.8529831976312527,2.1056691618406855,1.368304944305255,1.1989874536829535,1.24083651022264,1.2856667611104575,1.2722527206994372,1.2601728911219572,1.0611952604986534,0.37383698799068554,-1.3811393462574308,-1.6991184835526718,-1.4900386249685273,-1.7730542677800998,-1.5843333130979236,-1.3652048396957812,-1.7363125566382873,-1.7946936872999137,-1.3628855008814358,-1.722259451933595,-2.5630772475841113,-2.3516843431993015,-2.704375175412612,-2.9348670925085125,-2.7863920636066473,-2.837069211873665,-3.2278755962648598,-3.696863833735014,-3.7342311788111755,-3.270624435927891,-4.15025400457554,-4.033999489449048,-4.273295568453525,-4.778338365728732,-2.751655411596391,-2.995145889320385,-2.978945024932778,-3.28051443023832,-3.232198075501097,-3.199445182544714,-2.218961160848483,-2.6432234078864902,-2.29787413686746,-2.438366265990173,-1.7588191509464046,-2.0379066889718773,-2.1757631014450913,-2.0489945034151944,-2.04963243916775,-1.7773294541630493,-1.7498343495545772,-2.2104150111675125,-2.035774569618577,-0.30026372566594406,-1.8377940623014168,-1.242521739609839,-1.6486405557551125,-0.2681532637282813,0.1562479289716301,0.06768205667732097,0.2973664732649892,0.2495700025415717,-0.24087974644238752,-0.27479989709958086,-0.16853984558840873,0.08688530393885363,-0.28563747821910396,-0.19958529489971666,0.12145981261040706,0.7747746769967947,0.5206906894896031,0.9161423406998748,0.5141933212444831,0.24097639831852552,0.20495751267624168,-0.09178223047657164,0.4119648100331452,0.5962993624685825,0.7862698819282377,0.004556881663659973,-0.10247732263728385,0.5564735391224772,0.4284583813937057,0.5545773337110191,0.21490392249627072,1.183723190271418,1.2478651618514356,1.1348125899638526,0.7249274030983959,1.0637519709991619,1.0255531626184515,1.2052942591529434,2.7243619923701954,3.26342984519574,2.7847830439483277,2.519615842800676,2.4319900374493946,2.3251411347895434,0.768746517564034,0.6312506794389598,1.9412956123286644,2.1875437778326607,0.8692939516521432,1.2017154435212607,0.71183194680759,1.1212737830270252,0.8021535120406345,0.9757212110502689,0.869674545805724,0.3414848808982228,-1.6147553993790482,-1.3494765257200527,-1.5391998140709626,-1.2999743358737166,-1.7784784770040543,-1.3803924010615756,-1.5137955128496046,-1.2820270959053919,-1.3948202099678468,-1.541527381635222,-1.5855465461063334,-1.7681488628102457,-1.7827836706050155,-2.775649604536559,-2.7140903102608904,-3.119560736588033,-2.702995112243634,-3.704836182240073,-3.7351563594677124,-3.9087645111981626,-3.7233486441974524,-3.7656266665721922,-3.7509847880004994,-3.732266689469559,-2.8737367144249046,-3.1478245667965234,-2.8832006266634953,-2.94101697874978,-2.9977662093795905,-2.7662513510176234,-2.9729694908250157,-2.3613107091406005,-2.2593809721827984,-2.7755395882082396,-2.0055904697591576,-1.8077555192755579,-2.122017844276711,-2.2496326530693516,-2.253935077087884,-2.0803544504300633,-1.5686781996955372,-1.9841096835886305,-1.4096241287019822,-0.6628248855064849,0.36685778067178365,-1.4925835136480714,-1.2970626302386723,-1.790558529906402,-0.7731038199991397,-0.028742731523361487,-0.24000646731845188,0.034914700525906506,-0.12217513118882906,0.18596070104077383,-0.20298194794264146,